{"learner":{"attributes":{"scikit_learn":"{\"_estimator_type\": \"classifier\"}"},"feature_names":[],"feature_types":[],"gradient_booster":{"model":{"gbtree_model_param":{"num_parallel_tree":"1","num_trees":"50"},"iteration_indptr":[0,1,2,3,4,5,6,7,8,9,10,11,12,13,14,15,16,17,18,19,20,21,22,23,24,25,26,27,28,29,30,31,32,33,34,35,36,37,38,39,40,41,42,43,44,45,46,47,48,49,50],"tree_info":[0,0,0,0,0,0,0,0,0,0,0,0,0,0,0,0,0,0,0,0,0,0,0,0,0,0,0,0,0,0,0,0,0,0,0,0,0,0,0,0,0,0,0,0,0,0,0,0,0,0],"trees":[{"base_weights":[-1.3190996E-9,-4.3288457E-1,4.037642E0,-6.494397E-1,2.033401E0,5.8314767E0,1.2508461E0,-7.303844E-1,3.515152E0,1.8277034E0,-3.522844E-2,1.6605307E0,-6.1369866E-1,-8.1821054E-1,2.0580964E0,1.1984066E0,1.9564599E-1,1.9209099E0,-1.9423167E-1,-5.047038E-2,-2.2259238E-1,-8.538938E-1,1.4553434E0,1.1238209E0,7.3009604E-1,1.4299368E0,1.1771474E0,-2.643911E-1,7.290865E-1,2.636853E-1,-3.522844E-2,2.7139637E-1,1.1129063E0],"categories":[],"categories_nodes":[],"categories_segments":[],"categories_sizes":[],"default_left":[0,0,0,0,0,0,0,0,0,0,0,0,0,0,0,0,0,0,0,0,0,0,0,0,0,0,0,0,0,0,0,0,0],"id":0,"left_children":[1,3,5,7,-1,9,11,13,15,-1,-1,17,19,21,23,-1,-1,25,-1,-1,-1,27,-1,-1,29,31,-1,-1,-1,-1,-1,-1,-1],"loss_changes":[7.915212E2,6.430901E2,2.119173E2,1.367323E2,0E0,4.169287E1,1.5109165E1,9.749809E1,8.048851E0,0E0,0E0,1.0493809E1,1.0677028E-1,8.10177E1,2.4681427E1,0E0,0E0,8.2392235E0,0E0,0E0,0E0,3.6211975E1,0E0,0E0,1.1234856E0,1.20737E1,0E0,0E0,0E0,0E0,0E0,0E0,0E0],"parents":[2147483647,0,0,1,1,2,2,3,3,5,5,6,6,7,7,8,8,11,11,12,12,13,13,14,14,17,17,21,21,24,24,25,25],"right_children":[2,4,6,8,-1,10,12,14,16,-1,-1,18,20,22,24,-1,-1,26,-1,-1,-1,28,-1,-1,30,32,-1,-1,-1,-1,-1,-1,-1],"split_conditions":[9.9629834E-2,1.1009557E-1,2.044468E-1,1.3930175E-1,2.033401E0,1.733674E-1,4.3540084E-1,1.3106295E-1,3.2540196E-1,1.8277034E0,-3.522844E-2,8.883614E-2,5.16691E-1,2.144239E-1,2.2747467E-1,1.1984066E0,1.9564599E-1,1.0297309E-1,-1.9423167E-1,-5.047038E-2,-2.2259238E-1,2.0283663E-1,1.4553434E0,1.1238209E0,6.385358E-2,1.2837161E-1,1.1771474E0,-2.643911E-1,7.290865E-1,2.636853E-1,-3.522844E-2,2.7139637E-1,1.1129063E0],"split_indices":[581,2757,581,2187,0,1329,581,2633,2187,0,0,1532,581,1365,2633,0,0,2021,0,0,0,614,0,0,1217,1733,0,0,0,0,0,0,0],"split_type":[0,0,0,0,0,0,0,0,0,0,0,0,0,0,0,0,0,0,0,0,0,0,0,0,0,0,0,0,0,0,0,0,0],"sum_hessian":[4.5085855E2,4.080079E2,4.2850643E1,3.969954E2,1.10125065E1,2.5405088E1,1.7445555E1,3.9023526E2,6.7601523E0,2.4314741E1,1.0903472E0,1.4392583E1,3.052972E0,3.7900467E2,1.1230576E1,5.451736E0,1.3084166E0,1.3084166E1,1.3084166E0,1.1993818E0,1.8535903E0,3.7747818E2,1.526486E0,4.143319E0,7.0872564E0,1.1884784E1,1.1993818E0,3.7507944E2,2.3987637E0,5.9969096E0,1.0903472E0,1.0794437E1,1.0903472E0],"tree_param":{"num_deleted":"0","num_feature":"3000","num_nodes":"33","size_leaf_vector":"1"}},{"base_weights":[-1.3029294E-1,-4.1231036E-1,1.192461E0,-5.388578E-1,2.1373525E0,9.5628095E-1,6.550436E-1,-6.4846027E-1,1.4435219E0,2.3054428E0,8.586206E-2,1.0367862E0,-3.4112993E-1,-7.1101135E-1,1.9999207E0,1.5811976E0,-8.062608E-2,2.4872909E0,2.528218E-1,1.1079764E0,-3.1804568E-1,-7.4764705E-1,1.1360693E0,9.9472326E-1,6.91887E-1,5.165251E-1,6.063583E-1,9.1058093E-1,5.0157535E-1,1.1800183E0,-3.0389053E-1,-2.3419736E-1,7.824443E-1,-1.0093563E-1,6.054281E-1,5.2835856E-2,2.2524214E-1,3.8475296E-1,-1.2575454E-1],"categories":[],"categories_nodes":[],"categories_segments":[],"categories_sizes":[],"default_left":[0,0,0,0,0,0,0,0,0,0,0,0,0,0,0,0,0,0,0,0,0,0,0,0,0,0,0,0,0,0,0,0,0,0,0,0,0,0,0],"id":1,"left_children":[1,3,5,7,9,11,-1,13,15,17,-1,19,-1,21,23,25,-1,27,-1,29,-1,31,-1,-1,33,-1,35,-1,-1,37,-1,-1,-1,-1,-1,-1,-1,-1,-1],"loss_changes":[1.666928E2,1.1988132E2,1.6298058E1,7.7281075E1,4.8170776E0,1.2169426E1,0E0,5.669542E1,4.8377953E0,2.1582794E0,0E0,1.062751E1,0E0,5.6665695E1,1.140785E1,1.3498688E0,0E0,1.052597E0,0E0,1.0627838E1,0E0,3.802684E1,0E0,0E0,7.847068E0,0E0,1.005249E-1,0E0,0E0,1.0399132E1,0E0,0E0,0E0,0E0,0E0,0E0,0E0,0E0,0E0],"parents":[2147483647,0,0,1,1,2,2,3,3,4,4,5,5,7,7,8,8,9,9,11,11,13,13,14,14,15,15,17,17,19,19,21,21,24,24,26,26,29,29],"right_children":[2,4,6,8,10,12,-1,14,16,18,-1,20,-1,22,24,26,-1,28,-1,30,-1,32,-1,-1,34,-1,36,-1,-1,38,-1,-1,-1,-1,-1,-1,-1,-1,-1],"split_conditions":[1.01848476E-1,1.2716244E-1,1.5716378E-1,1.1009557E-1,8.0001004E-2,7.110738E-2,6.550436E-1,1.417893E-1,1.5503779E-1,2.5967973E-1,8.586206E-2,8.2278445E-2,-3.4112993E-1,1.3700567E-1,2.2770157E-1,2.4571925E-1,-8.062608E-2,1.1009557E-1,2.528218E-1,7.735174E-2,-3.1804568E-1,1.7564596E-1,1.1360693E0,9.9472326E-1,1.0151671E-1,5.165251E-1,2.6534992E-1,9.1058093E-1,5.0157535E-1,4.135614E-1,-3.0389053E-1,-2.3419736E-1,7.824443E-1,-1.0093563E-1,6.054281E-1,5.2835856E-2,2.2524214E-1,3.8475296E-1,-1.2575454E-1],"split_indices":[581,1158,677,2757,1232,702,0,2510,1394,1158,0,1622,0,2703,2510,2757,0,2757,0,1270,0,2923,0,0,2309,0,2757,0,0,581,0,0,0,0,0,0,0,0,0],"split_type":[0,0,0,0,0,0,0,0,0,0,0,0,0,0,0,0,0,0,0,0,0,0,0,0,0,0,0,0,0,0,0,0,0,0,0,0,0,0,0],"sum_hessian":[4.4453207E2,3.6697876E2,7.755332E1,3.5037714E2,1.660162E1,6.42146E1,1.333872E1,3.3265793E2,1.7719215E1,1.4994641E1,1.6069794E0,6.2322586E1,1.8920125E0,3.2569693E2,6.9609766E0,1.6471384E1,1.2478321E0,1.27135725E1,2.2810686E0,6.073237E1,1.5902185E0,3.238926E2,1.8043433E0,2.7049801E0,4.255996E0,1.3726153E1,2.7452307E0,5.9752793E0,6.738293E0,5.916631E1,1.5660596E0,3.214974E2,2.395183E0,2.8175647E0,1.4384316E0,1.2478321E0,1.4973985E0,5.578887E1,3.3774347E0],"tree_param":{"num_deleted":"0","num_feature":"3000","num_nodes":"39","size_leaf_vector":"1"}},{"base_weights":[-1.1357112E-1,-2.2554407E-1,1.9679486E0,-3.141688E-1,5.827953E-1,6.208194E-1,6.424507E-2,-4.1858757E-1,1.2297033E0,-4.7326162E-1,6.150435E-1,1.3560623E0,-7.071704E-2,-5.395902E-1,1.0603505E0,1.4503152E0,-5.358715E-2,-1.7638464E-1,4.4997752E-1,3.5245675E-1,-5.498347E-3,4.6289074E-1,2.170357E-2],"categories":[],"categories_nodes":[],"categories_segments":[],"categories_sizes":[],"default_left":[0,0,0,0,0,0,0,0,0,0,0,0,0,0,0,0,0,0,0,0,0,0,0],"id":2,"left_children":[1,3,5,7,-1,-1,-1,9,11,13,-1,15,-1,17,19,21,-1,-1,-1,-1,-1,-1,-1],"loss_changes":[9.306825E1,7.3247925E1,3.1845474E0,5.919979E1,0E0,0E0,0E0,4.7093506E1,4.636917E0,3.4661705E1,0E0,3.3852768E0,0E0,3.2629623E1,1.7791986E0,2.5020676E0,0E0,0E0,0E0,0E0,0E0,0E0,0E0],"parents":[2147483647,0,0,1,1,2,2,3,3,7,7,8,8,9,9,11,11,13,13,14,14,15,15],"right_children":[2,4,6,8,-1,-1,-1,10,12,14,-1,16,-1,18,20,22,-1,-1,-1,-1,-1,-1,-1],"split_conditions":[1.4414129E-1,1.5716378E-1,1.4124496E-1,1.2716244E-1,5.827953E-1,6.208194E-1,6.424507E-2,1.6268522E-1,8.0001004E-2,1.5888672E-1,6.150435E-1,2.7286807E-1,-7.071704E-2,1.8211381E-1,1.285893E-1,1.11250214E-1,-5.358715E-2,-1.7638464E-1,4.4997752E-1,3.5245675E-1,-5.498347E-3,4.6289074E-1,2.170357E-2],"split_indices":[1756,677,1217,1158,0,0,0,2320,1232,2187,0,581,0,698,2806,2693,0,0,0,0,0,0,0],"split_type":[0,0,0,0,0,0,0,0,0,0,0,0,0,0,0,0,0,0,0,0,0,0,0],"sum_hessian":[3.9640356E2,3.7701416E2,1.9389397E1,3.6303046E2,1.3983732E1,1.8159027E1,1.2303692E0,3.4071527E2,2.2315174E1,3.3412384E2,6.5914145E0,2.061246E1,1.7027154E0,3.208934E2,1.3230442E1,1.9471584E1,1.1408733E0,3.1415622E2,6.7371855E0,1.188016E1,1.3502814E0,1.8132618E1,1.3389673E0],"tree_param":{"num_deleted":"0","num_feature":"3000","num_nodes":"23","size_leaf_vector":"1"}},{"base_weights":[-8.825658E-2,-2.9068285E-1,7.1127254E-1,-4.189103E-1,1.2056402E0,7.7827835E-1,-3.2513353E-1,-5.0531507E-1,1.1314062E0,1.294016E0,-5.566111E-2,8.378219E-1,-3.153075E-1,-5.575715E-1,5.6578046E-1,1.809371E0,-6.596561E-1,3.993233E-1,8.250901E-2,8.958134E-1,-2.55126E-1,-5.984192E-1,6.428368E-1,7.548987E-1,1.0741259E0,-6.9440104E-2,-2.2976011E-1,9.4850725E-1,-2.7491888E-1,-1.911551E-1,6.472603E-1,-1.4944994E-1,4.7260785E-1,3.008454E-1,-2.5940672E-1],"categories":[],"categories_nodes":[],"categories_segments":[],"categories_sizes":[],"default_left":[0,0,0,0,0,0,0,0,0,0,0,0,0,0,0,0,0,0,0,0,0,0,0,0,0,0,0,0,0,0,0,0,0,0,0],"id":3,"left_children":[1,3,5,7,9,11,-1,13,15,17,-1,19,-1,21,-1,23,25,-1,-1,27,-1,29,-1,-1,31,-1,-1,33,-1,-1,-1,-1,-1,-1,-1],"loss_changes":[5.7914215E1,5.5232506E1,9.54277E0,3.5863537E1,3.0397682E0,8.538479E0,0E0,3.2321545E1,1.8457178E1,4.4725418E-1,0E0,7.4824677E0,0E0,2.837986E1,0E0,2.796753E0,3.3596277E-2,0E0,0E0,7.2531433E0,0E0,2.7312225E1,0E0,0E0,6.2472234E0,0E0,0E0,7.312916E0,0E0,0E0,0E0,0E0,0E0,0E0,0E0],"parents":[2147483647,0,0,1,1,2,2,3,3,4,4,5,5,7,7,8,8,9,9,11,11,13,13,15,15,16,16,19,19,21,21,24,24,27,27],"right_children":[2,4,6,8,10,12,-1,14,16,18,-1,20,-1,22,-1,24,26,-1,-1,28,-1,30,-1,-1,32,-1,-1,34,-1,-1,-1,-1,-1,-1,-1],"split_conditions":[1.1327828E-1,1.1009557E-1,1.3897853E-1,1.02233075E-1,1.5503779E-1,2.1956506E-1,-3.2513353E-1,1.4414129E-1,2.6752448E-1,1.3987704E-1,-5.566111E-2,7.674034E-2,-3.153075E-1,2.144239E-1,5.6578046E-1,1.9336332E-1,3.5153306E-1,3.993233E-1,8.250901E-2,2.309063E-1,-2.55126E-1,1.3700567E-1,6.428368E-1,7.548987E-1,2.0778932E-1,-6.9440104E-2,-2.2976011E-1,8.883614E-2,-2.7491888E-1,-1.911551E-1,6.472603E-1,-1.4944994E-1,4.7260785E-1,3.008454E-1,-2.5940672E-1],"split_indices":[581,2757,1232,2309,1394,2013,0,1756,2309,1232,0,1904,0,1365,0,2309,2309,0,0,1228,0,2703,0,0,2309,0,0,1532,0,0,0,0,0,0,0],"split_type":[0,0,0,0,0,0,0,0,0,0,0,0,0,0,0,0,0,0,0,0,0,0,0,0,0,0,0,0,0,0,0,0,0,0,0],"sum_hessian":[3.5555847E2,2.8423242E2,7.1326065E1,2.6246088E2,2.1771551E1,6.930546E1,2.020607E0,2.4924368E2,1.3217195E1,2.0536774E1,1.234776E0,6.76456E1,1.6598567E0,2.4466382E2,4.579858E0,9.580498E0,3.6366966E0,1.9520514E1,1.0162611E0,6.585292E1,1.7926811E0,2.4178479E2,2.8790238E0,3.6492295E0,5.931268E0,1.354668E0,2.2820287E0,6.4455345E1,1.3975737E0,2.3918922E2,2.595575E0,1.435245E0,4.4960237E0,6.3014793E1,1.4405514E0],"tree_param":{"num_deleted":"0","num_feature":"3000","num_nodes":"35","size_leaf_vector":"1"}},{"base_weights":[-7.5520866E-2,-1.5077218E-1,4.7532716E-1,-2.5022632E-1,1.0887513E0,-3.429657E-1,1.0156555E0,7.592446E-1,6.1542565E-1,-3.9130777E-1,6.59953E-1,1.1021876E0,-4.651553E-2,3.133822E-1,2.1342792E-1,-4.423658E-1,4.372719E-1,1.1986377E0,5.0593287E-1,-8.379101E-2,2.8943518E-1,-1.4701617E-1,4.3663943E-1,3.7617362E-1,8.095647E-2,2.3726428E-2,2.27051E-1,5.9361402E-2,-1.0704063E-1],"categories":[],"categories_nodes":[],"categories_segments":[],"categories_sizes":[],"default_left":[0,0,0,0,0,0,0,0,0,0,0,0,0,0,0,0,0,0,0,0,0,0,0,0,0,0,0,0,0],"id":4,"left_children":[1,3,-1,5,7,9,11,13,-1,15,-1,17,-1,-1,19,21,-1,23,25,27,-1,-1,-1,-1,-1,-1,-1,-1,-1],"loss_changes":[4.015774E1,3.8072132E1,0E0,3.3767212E1,5.7261333E0,3.355652E1,2.1649284E0,2.6887798E0,0E0,2.5365196E1,0E0,4.547348E-1,0E0,0E0,1.7947819E0,2.3845882E1,0E0,4.395275E-1,4.0061772E-1,5.642447E-1,0E0,0E0,0E0,0E0,0E0,0E0,0E0,0E0,0E0],"parents":[2147483647,0,0,1,1,3,3,4,4,5,5,6,6,7,7,9,9,11,11,14,14,15,15,17,17,18,18,19,19],"right_children":[2,4,-1,6,8,10,12,14,-1,16,-1,18,-1,-1,20,22,-1,24,26,28,-1,-1,-1,-1,-1,-1,-1,-1,-1],"split_conditions":[1.5716378E-1,1.3106295E-1,4.7532716E-1,1.1009557E-1,1.550214E-1,1.738168E-1,1.5503779E-1,2.3299628E-1,6.1542565E-1,1.6268522E-1,6.59953E-1,2.4571925E-1,-4.651553E-2,3.133822E-1,5.915542E-2,1.7812258E-1,4.372719E-1,1.302937E-1,3.1139812E-1,3.6265856E-1,2.8943518E-1,-1.4701617E-1,4.3663943E-1,3.7617362E-1,8.095647E-2,2.3726428E-2,2.27051E-1,5.9361402E-2,-1.0704063E-1],"split_indices":[677,2633,0,2757,2510,1984,1394,2633,0,2320,0,2757,0,0,1158,2808,0,1217,2757,2633,0,0,0,0,0,0,0,0,0],"split_type":[0,0,0,0,0,0,0,0,0,0,0,0,0,0,0,0,0,0,0,0,0,0,0,0,0,0,0,0,0],"sum_hessian":[3.1857324E2,3.0562723E2,1.294602E1,2.8366525E2,2.1961975E1,2.6498157E2,1.8683666E1,1.76942E1,4.267773E0,2.6086826E2,4.1133304E0,1.7452223E1,1.2314422E0,1.1019281E1,6.6749196E0,2.545981E2,6.2701507E0,1.4152619E1,3.2996037E0,5.4195514E0,1.2553682E0,2.4908105E2,5.5170484E0,1.3027274E1,1.1253452E0,1.7084135E0,1.5911901E0,2.8029778E0,2.6165736E0],"tree_param":{"num_deleted":"0","num_feature":"3000","num_nodes":"29","size_leaf_vector":"1"}},{"base_weights":[-4.8061676E-2,-1.2230331E-1,1.1795806E0,-1.9737333E-1,3.6210746E-1,3.778352E-1,1.6637556E-2,-2.5388128E-1,1.564423E0,-3.0894375E-1,4.280787E-1,4.9980593E-1,1.4614975E-1,-3.7091273E-1,1.3114995E0,-1.2256257E-1,5.3741235E-1,4.8190066E-1,-1.3062093E-1],"categories":[],"categories_nodes":[],"categories_segments":[],"categories_sizes":[],"default_left":[0,0,0,0,0,0,0,0,0,0,0,0,0,0,0,0,0,0,0],"id":5,"left_children":[1,3,5,7,-1,-1,-1,9,11,13,-1,-1,-1,15,17,-1,-1,-1,-1],"loss_changes":[2.6464188E1,2.750328E1,1.4171429E0,2.6229027E1,0E0,0E0,0E0,2.3788198E1,8.619118E-2,2.5097557E1,0E0,0E0,0E0,2.0002403E1,5.462536E0,0E0,0E0,0E0,0E0],"parents":[2147483647,0,0,1,1,2,2,3,3,7,7,8,8,9,9,13,13,14,14],"right_children":[2,4,6,8,-1,-1,-1,10,12,14,-1,-1,-1,16,18,-1,-1,-1,-1],"split_conditions":[1.4414129E-1,1.4887689E-1,1.4124496E-1,1.7564596E-1,3.6210746E-1,3.778352E-1,1.6637556E-2,1.5716378E-1,3.0520484E-1,1.4186631E-1,4.280787E-1,4.9980593E-1,1.4614975E-1,2.0556052E-1,2.0632963E-1,-1.2256257E-1,5.3741235E-1,4.8190066E-1,-1.3062093E-1],"split_indices":[1756,2510,1217,2923,0,0,0,677,2923,1846,0,0,0,725,2975,0,0,0,0],"split_type":[0,0,0,0,0,0,0,0,0,0,0,0,0,0,0,0,0,0,0],"sum_hessian":[2.8777878E2,2.7221683E2,1.556193E1,2.584719E2,1.3744942E1,1.4417187E1,1.1447421E0,2.5126859E2,7.203304E0,2.4408856E2,7.180024E0,6.0830674E0,1.120236E0,2.3584065E2,8.247911E0,2.3260384E2,3.2368233E0,7.125724E0,1.1221881E0],"tree_param":{"num_deleted":"0","num_feature":"3000","num_nodes":"19","size_leaf_vector":"1"}},{"base_weights":[-2.7862536E-2,-1.1699899E-1,8.503736E-1,-1.6950823E-1,3.968527E-1,6.8099606E-1,4.6447158E-1,-1.9916421E-1,6.708046E-1,3.1272393E-1,3.761833E-1,-2.4024795E-1,1.5028383E0,9.694075E-2,1.0082228E0,-2.6769483E-1,6.56235E-1,5.2328914E-1,6.506998E-2,-1.2569912E-1,2.6270527E-1,4.0134934E-1,2.3048967E-2,-9.191343E-2,4.4865566E-1,-1.7868933E-1,3.6905497E-2],"categories":[],"categories_nodes":[],"categories_segments":[],"categories_sizes":[],"default_left":[0,0,0,0,0,0,0,0,0,0,0,0,0,0,0,0,0,0,0,0,0,0,0,0,0,0,0],"id":6,"left_children":[1,3,5,7,-1,9,-1,11,-1,-1,13,15,17,19,21,23,-1,-1,-1,25,-1,-1,-1,-1,-1,-1,-1],"loss_changes":[2.0946802E1,1.8569637E1,1.8604488E0,1.7209576E1,0E0,1.9905443E0,0E0,1.6657213E1,0E0,0E0,2.2491944E0,1.5805981E1,1.3700275E0,1.9009515E0,1.1154914E0,1.5924772E1,0E0,0E0,0E0,1.1143494E0,0E0,0E0,0E0,0E0,0E0,0E0,0E0],"parents":[2147483647,0,0,1,1,2,2,3,3,5,5,7,7,10,10,11,11,12,12,13,13,14,14,15,15,19,19],"right_children":[2,4,6,8,-1,10,-1,12,-1,-1,14,16,18,20,22,24,-1,-1,-1,26,-1,-1,-1,-1,-1,-1,-1],"split_conditions":[1.2716244E-1,1.5716378E-1,9.8359264E-2,1.600858E-1,3.968527E-1,1.8867397E-1,4.6447158E-1,1.738168E-1,6.708046E-1,3.1272393E-1,6.385358E-2,2.0016707E-1,2.7838954E-1,1.4614768E-1,1.6968437E-1,1.9924736E-1,6.56235E-1,5.2328914E-1,6.506998E-2,2.0760708E-1,2.6270527E-1,4.0134934E-1,2.3048967E-2,-9.191343E-2,4.4865566E-1,-1.7868933E-1,3.6905497E-2],"split_indices":[1158,677,1793,47,0,1158,0,1984,0,0,1217,2215,1984,1996,1217,1523,0,0,0,1158,0,0,0,0,0,0,0],"split_type":[0,0,0,0,0,0,0,0,0,0,0,0,0,0,0,0,0,0,0,0,0,0,0,0,0,0,0],"sum_hessian":[2.6530743E2,2.4164816E2,2.3659267E1,2.3399686E2,7.6513047E0,2.0628408E1,3.030858E0,2.3205325E2,1.9436133E0,8.330763E0,1.22976465E1,2.2742245E2,4.6307864E0,9.329251E0,2.9683957E0,2.2575981E2,1.6626444E0,3.5986364E0,1.03215E0,7.9071994E0,1.4220518E0,1.8701845E0,1.0982112E0,2.217217E2,4.03813E0,2.2538733E0,5.653326E0],"tree_param":{"num_deleted":"0","num_feature":"3000","num_nodes":"27","size_leaf_vector":"1"}},{"base_weights":[-3.6821614E-3,-7.914483E-2,9.499023E-1,-2.336765E-1,4.3244386E-1,1.0668281E0,-1.04976326E-1,-2.8975284E-1,4.2302972E-1,3.002846E-1,3.4928474E-1,1.2426506E0,4.9577838E-1,-3.2842812E-1,6.313013E-1,1.7406167E-1,3.943816E-1,1.0082239E0,5.863194E-1,-2.9318342E-2,7.9878986E-1,-3.7012818E-1,5.1515085E-1,8.778058E-1,-7.54694E-3,5.004717E-1,6.478307E-1,2.8843194E-1,6.1176296E-2,-1.3233224E-1,2.3611474E-1,8.2417324E-2,3.160362E-1,-3.474409E-2,4.2021242E-1,8.2206033E-4,2.361834E-1],"categories":[],"categories_nodes":[],"categories_segments":[],"categories_sizes":[],"default_left":[0,0,0,0,0,0,0,0,0,0,0,0,0,0,0,0,0,0,0,0,0,0,0,0,0,0,0,0,0,0,0,0,0,0,0,0,0],"id":7,"left_children":[1,3,5,7,9,11,-1,13,-1,15,-1,17,19,21,-1,23,-1,25,-1,-1,27,29,-1,31,33,-1,35,-1,-1,-1,-1,-1,-1,-1,-1,-1,-1],"loss_changes":[1.8027012E1,1.8449968E1,3.1654053E0,1.6899364E1,4.8920584E0,1.1010132E0,0E0,1.678653E1,0E0,5.820944E0,0E0,1.0052872E-1,1.1013141E0,1.53017025E1,0E0,5.524744E0,0E0,1.6315069E0,0E0,0E0,1.789403E-1,1.42544155E1,0E0,6.4965916E-1,5.545951E0,0E0,8.0836034E-1,0E0,0E0,0E0,0E0,0E0,0E0,0E0,0E0,0E0,0E0],"parents":[2147483647,0,0,1,1,2,2,3,3,4,4,5,5,7,7,9,9,11,11,12,12,13,13,15,15,17,17,20,20,21,21,23,23,24,24,26,26],"right_children":[2,4,6,8,10,12,-1,14,-1,16,-1,18,20,22,-1,24,-1,26,-1,-1,28,30,-1,32,34,-1,36,-1,-1,-1,-1,-1,-1,-1,-1,-1,-1],"split_conditions":[1.1814756E-1,1.1327828E-1,8.347355E-2,1.7564596E-1,1.0297309E-1,2.4555133E-1,-1.04976326E-1,2.0016707E-1,4.2302972E-1,9.92816E-2,3.4928474E-1,2.2874808E-1,3.2677808E-1,2.144239E-1,6.313013E-1,1.4073583E-1,3.943816E-1,1.4023128E-1,5.863194E-1,-2.9318342E-2,4.3836182E-1,1.417893E-1,5.1515085E-1,1.2207586E-1,2.1675512E-1,5.004717E-1,1.5024403E-1,2.8843194E-1,6.1176296E-2,-1.3233224E-1,2.3611474E-1,8.2417324E-2,3.160362E-1,-3.474409E-2,4.2021242E-1,8.2206033E-4,2.361834E-1],"split_indices":[2806,581,809,2923,2021,2806,0,2215,0,2358,0,2806,2806,1365,0,581,0,2806,0,0,2806,2510,0,581,2510,0,2806,0,0,0,0,0,0,0,0,0,0],"split_type":[0,0,0,0,0,0,0,0,0,0,0,0,0,0,0,0,0,0,0,0,0,0,0,0,0,0,0,0,0,0,0,0,0,0,0,0,0],"sum_hessian":[2.4846947E2,2.3109833E2,1.7371147E1,1.7790358E2,5.3194736E1,1.6101946E1,1.2692016E0,1.7283128E2,5.072302E0,4.625253E1,6.942209E0,1.1412141E1,4.689806E0,1.7093277E2,1.8985127E0,4.2175747E1,4.0767803E0,1.0402453E1,1.0096873E0,1.8140734E0,2.8757327E0,1.6832057E2,2.6121993E0,7.8649797E0,3.431077E1,2.3923047E0,8.010148E0,1.7743629E0,1.1013696E0,1.5917581E2,9.14476E0,2.3523464E0,5.5126333E0,3.2713512E1,1.5972551E0,1.6049968E0,6.4051514E0],"tree_param":{"num_deleted":"0","num_feature":"3000","num_nodes":"37","size_leaf_vector":"1"}},{"base_weights":[1.4641267E-2,-3.764734E-2,1.1406761E0,-8.250993E-2,3.77486E-1,3.7252122E-1,3.0535618E-2,-1.08041525E-1,6.709242E-1,-1.3459103E-1,6.432296E-1,-1.6459468E-1,5.378462E-1,-5.919315E-2,4.9972925E-1],"categories":[],"categories_nodes":[],"categories_segments":[],"categories_sizes":[],"default_left":[0,0,0,0,0,0,0,0,0,0,0,0,0,0,0],"id":8,"left_children":[1,3,5,7,-1,-1,-1,9,-1,11,-1,13,-1,-1,-1],"loss_changes":[1.3677534E1,1.3025929E1,9.5586014E-1,1.3016116E1,0E0,0E0,0E0,1.3106344E1,0E0,1.2601854E1,0E0,1.29317E1,0E0,0E0,0E0],"parents":[2147483647,0,0,1,1,2,2,3,3,7,7,9,9,11,11],"right_children":[2,4,6,8,-1,-1,-1,10,-1,12,-1,14,-1,-1,-1],"split_conditions":[1.7119673E-1,1.9822153E-1,6.056118E-2,2.6287374E-1,3.77486E-1,3.7252122E-1,3.0535618E-2,2.2196265E-1,6.709242E-1,1.9735222E-1,6.432296E-1,1.964019E-1,5.378462E-1,-5.919315E-2,4.9972925E-1],"split_indices":[1846,2089,2975,782,0,0,0,2839,0,2770,0,2130,0,0,0],"split_type":[0,0,0,0,0,0,0,0,0,0,0,0,0,0,0],"sum_hessian":[2.3057048E2,2.2126248E2,9.307989E0,2.1476413E2,6.4983644E0,8.304855E0,1.0031335E0,2.1336833E2,1.3957987E0,2.1181161E2,1.5567168E0,2.094655E2,2.346107E0,2.0666379E2,2.8017056E0],"tree_param":{"num_deleted":"0","num_feature":"3000","num_nodes":"15","size_leaf_vector":"1"}},{"base_weights":[2.5385886E-2,-3.1755335E-4,5.9112686E-1,-7.50867E-2,6.9969386E-1,-1.22311205E-1,3.402673E-1,5.491555E-1,3.9100304E-1,-1.4978741E-1,5.673744E-1,6.294827E-1,-1.0219019E-1,-1.8199739E-1,4.666801E-1,7.1643955E-1,-9.293412E-2,-6.457025E-2,4.4775462E-1,2.3537119E-1,4.3089345E-2],"categories":[],"categories_nodes":[],"categories_segments":[],"categories_sizes":[],"default_left":[0,0,0,0,0,0,0,0,0,0,0,0,0,0,0,0,0,0,0,0,0],"id":9,"left_children":[1,3,-1,5,7,9,-1,11,-1,13,-1,15,-1,17,-1,19,-1,-1,-1,-1,-1],"loss_changes":[1.1143394E1,1.1618174E1,0E0,1.1592113E1,1.2309084E0,1.1011791E1,0E0,1.5634327E0,0E0,1.0842623E1,0E0,1.6645174E0,0E0,1.0871606E1,0E0,5.2997684E-1,0E0,0E0,0E0,0E0,0E0],"parents":[2147483647,0,0,1,1,3,3,4,4,5,5,7,7,9,9,11,11,13,13,15,15],"right_children":[2,4,-1,6,8,10,-1,12,-1,14,-1,16,-1,18,-1,20,-1,-1,-1,-1,-1],"split_conditions":[2.622888E-1,1.2716244E-1,5.9112686E-1,1.7655054E-1,9.8359264E-2,1.600858E-1,3.402673E-1,8.0001004E-2,3.9100304E-1,1.7275077E-1,5.673744E-1,2.7286807E-1,-1.0219019E-1,2.144239E-1,4.666801E-1,1.9140849E-1,-9.293412E-2,-6.457025E-2,4.4775462E-1,2.3537119E-1,4.3089345E-2],"split_indices":[725,1158,0,614,1793,47,0,1232,0,644,0,581,0,1365,0,2633,0,0,0,0,0],"split_type":[0,0,0,0,0,0,0,0,0,0,0,0,0,0,0,0,0,0,0,0,0],"sum_hessian":[2.218815E2,2.1997441E2,1.9071E0,1.9955266E2,2.042175E1,1.9291792E2,6.6347313E0,1.787404E1,2.5477095E0,1.9123404E2,1.6838919E0,1.6662365E1,1.211674E0,1.8856584E2,2.6681962E0,1.5467609E1,1.1947569E0,1.8575041E2,2.8154266E0,1.349303E1,1.9745796E0],"tree_param":{"num_deleted":"0","num_feature":"3000","num_nodes":"21","size_leaf_vector":"1"}},{"base_weights":[3.2143313E-2,7.982681E-2,-3.105144E-1,4.162791E-2,4.4654134E-1,-1.1668529E-2,3.0479985E-1,-4.330691E-2,5.299144E-1,-7.754181E-2,4.2430896E-1,-3.1971972E-2,4.9715185E-1],"categories":[],"categories_nodes":[],"categories_segments":[],"categories_sizes":[],"default_left":[0,0,0,0,0,0,0,0,0,0,0,0,0],"id":10,"left_children":[1,3,-1,5,-1,7,-1,9,-1,11,-1,-1,-1],"loss_changes":[1.0966035E1,1.100397E1,0E0,1.046301E1,0E0,1.0866354E1,0E0,9.5626745E0,0E0,9.545207E0,0E0,0E0,0E0],"parents":[2147483647,0,0,1,1,3,3,5,5,7,7,9,9],"right_children":[2,4,-1,6,-1,8,-1,10,-1,12,-1,-1,-1],"split_conditions":[7.735174E-2,1.738168E-1,-3.105144E-1,1.4414129E-1,4.4654134E-1,1.782066E-1,3.0479985E-1,1.3700567E-1,5.299144E-1,1.806177E-1,4.2430896E-1,-3.1971972E-2,4.9715185E-1],"split_indices":[1270,1984,0,1756,0,2459,0,2703,0,806,0,0,0],"split_type":[0,0,0,0,0,0,0,0,0,0,0,0,0],"sum_hessian":[2.1287236E2,2.0465338E2,8.21898E0,2.0025258E2,4.400796E0,1.9080396E2,9.448623E0,1.8842676E2,2.3771968E0,1.8502798E2,3.3987718E0,1.8290553E2,2.1224616E0],"tree_param":{"num_deleted":"0","num_feature":"3000","num_nodes":"13","size_leaf_vector":"1"}},{"base_weights":[3.219225E-2,-3.2477293E-2,7.399844E-1,-9.936765E-2,6.581761E-1,8.048736E-1,-4.649563E-2,-1.3316809E-1,4.3982515E-1,7.4723065E-1,-9.465227E-2,8.5093176E-1,1.694808E-2,-1.6682786E-1,4.5534286E-1,9.0980095E-1,3.049547E-1,9.524275E-1,2.79076E-1,-2.0815548E-1,3.4087902E-1,6.992176E-1,4.538265E-1,-1.1500999E-1,3.2316265E-1,3.03658E-1,6.7531824E-2,-7.055847E-2,1.7155851E-1,-7.392624E-2,3.4347686E-1,3.791647E-1,1.1111872E-1,-8.231957E-2,6.786733E-2],"categories":[],"categories_nodes":[],"categories_segments":[],"categories_sizes":[],"default_left":[0,0,0,0,0,0,0,0,0,0,0,0,0,0,0,0,0,0,0,0,0,0,0,0,0,0,0,0,0,0,0,0,0,0,0],"id":11,"left_children":[1,3,5,7,9,11,-1,13,-1,15,-1,17,-1,19,-1,21,23,25,27,29,-1,31,-1,33,-1,-1,-1,-1,-1,-1,-1,-1,-1,-1,-1],"loss_changes":[9.498682E0,8.871797E0,1.133564E0,9.436993E0,1.7066288E0,5.157871E-1,0E0,9.805122E0,0E0,8.6134815E-1,0E0,6.2448597E-1,0E0,9.356723E0,0E0,3.4874535E-1,1.9923657E0,3.2039738E-1,6.956068E-1,8.824692E0,0E0,1.4014778E0,0E0,3.1418642E-1,0E0,0E0,0E0,0E0,0E0,0E0,0E0,0E0,0E0,0E0,0E0],"parents":[2147483647,0,0,1,1,2,2,3,3,4,4,5,5,7,7,9,9,11,11,13,13,15,15,16,16,17,17,18,18,19,19,21,21,23,23],"right_children":[2,4,6,8,10,12,-1,14,-1,16,-1,18,-1,20,-1,22,24,26,28,30,-1,32,-1,34,-1,-1,-1,-1,-1,-1,-1,-1,-1,-1,-1],"split_conditions":[1.3106295E-1,1.1814756E-1,1.7902228E-1,2.407821E-1,8.347355E-2,1.7965496E-1,-4.649563E-2,2.025846E-1,4.3982515E-1,2.4555133E-1,-9.465227E-2,3.198955E-1,1.694808E-2,1.7812258E-1,4.5534286E-1,2.3073405E-1,1.0151671E-1,1.7357475E-1,4.097923E-1,1.738168E-1,3.4087902E-1,1.4148223E-1,4.538265E-1,4.413658E-1,3.2316265E-1,3.03658E-1,6.7531824E-2,-7.055847E-2,1.7155851E-1,-7.392624E-2,3.4347686E-1,3.791647E-1,1.1111872E-1,-8.231957E-2,6.786733E-2],"split_indices":[2633,2806,1217,2153,809,644,0,2088,0,2806,0,2633,0,2808,0,2806,2309,1996,2633,1984,0,2806,0,2806,0,0,0,0,0,0,0,0,0,0,0],"split_type":[0,0,0,0,0,0,0,0,0,0,0,0,0,0,0,0,0,0,0,0,0,0,0,0,0,0,0,0,0,0,0,0,0,0,0],"sum_hessian":[2.0599394E2,1.8962262E2,1.6371323E1,1.7365967E2,1.5962957E1,1.53584385E1,1.0128846E0,1.7088495E2,2.774728E0,1.4838391E1,1.1245666E0,1.4338934E1,1.019504E0,1.6835158E2,2.533363E0,1.0077169E1,4.7612214E0,1.1612405E1,2.7265291E0,1.6399086E2,4.36072E0,9.069334E0,1.0078359E0,3.6353366E0,1.1258847E0,1.0368709E1,1.2436961E0,1.060495E0,1.6660341E0,1.6027611E2,3.7147563E0,2.2911763E0,6.7781577E0,2.6114218E0,1.0239147E0],"tree_param":{"num_deleted":"0","num_feature":"3000","num_nodes":"35","size_leaf_vector":"1"}},{"base_weights":[3.829594E-2,1.3179693E-2,5.393021E-1,-2.5227167E-2,3.5027984E-1,-5.1408827E-2,4.8806056E-1,-9.319912E-2,9.8249865E-1,-1.1700362E-1,5.4546654E-1,3.3117038E-1,5.1760502E-2,-4.1982707E-2,5.0551575E-1],"categories":[],"categories_nodes":[],"categories_segments":[],"categories_sizes":[],"default_left":[0,0,0,0,0,0,0,0,0,0,0,0,0,0,0],"id":12,"left_children":[1,3,-1,5,-1,7,-1,9,11,13,-1,-1,-1,-1,-1],"loss_changes":[8.779169E0,8.782284E0,0E0,8.390058E0,0E0,8.301348E0,0E0,8.563917E0,5.439191E-1,7.768325E0,0E0,0E0,0E0,0E0,0E0],"parents":[2147483647,0,0,1,1,3,3,5,5,7,7,8,8,9,9],"right_children":[2,4,-1,6,-1,8,-1,10,12,14,-1,-1,-1,-1,-1],"split_conditions":[2.2196265E-1,1.6268522E-1,5.393021E-1,1.8551588E-1,3.5027984E-1,1.7564596E-1,4.8806056E-1,2.5192937E-1,3.0520484E-1,2.0016707E-1,5.4546654E-1,3.3117038E-1,5.1760502E-2,-4.1982707E-2,5.0551575E-1],"split_indices":[2839,2320,0,2860,0,2923,0,690,2923,2215,0,0,0,0,0],"split_type":[0,0,0,0,0,0,0,0,0,0,0,0,0,0,0],"sum_hessian":[1.9820949E2,1.9641306E2,1.7964313E0,1.9103557E2,5.377493E0,1.8900911E2,2.0264478E0,1.8254073E2,6.468395E0,1.812226E2,1.3181268E0,5.309648E0,1.1587473E0,1.7985551E2,1.3670743E0],"tree_param":{"num_deleted":"0","num_feature":"3000","num_nodes":"15","size_leaf_vector":"1"}},{"base_weights":[4.4036545E-2,8.1929736E-2,-2.8984553E-1,2.7618853E-2,8.4393E-1,-2.257941E-2,9.859203E-1,1.0862716E0,-1.4262348E-1,-6.0757384E-2,3.3605182E-1,3.513116E-1,4.0214807E-1,3.743939E-1,-7.028653E-2,-9.583981E-2,1.205835E0,-1.0103165E-1,3.2827923E-1,-3.5855733E-2,5.392753E-1,4.930006E-1,3.1166608E-2],"categories":[],"categories_nodes":[],"categories_segments":[],"categories_sizes":[],"default_left":[0,0,0,0,0,0,0,0,0,0,0,0,0,0,0,0,0,0,0,0,0,0,0],"id":13,"left_children":[1,3,-1,5,7,9,11,13,-1,15,-1,-1,17,-1,-1,19,21,-1,-1,-1,-1,-1,-1],"loss_changes":[7.460323E0,7.706337E0,0E0,8.459018E0,4.478751E0,7.381406E0,4.748764E-1,2.5931225E0,0E0,7.365564E0,0E0,0E0,2.2250538E0,0E0,0E0,7.374448E0,1.9847794E0,0E0,0E0,0E0,0E0,0E0,0E0],"parents":[2147483647,0,0,1,1,3,3,4,4,5,5,6,6,7,7,9,9,12,12,15,15,16,16],"right_children":[2,4,-1,6,8,10,12,14,-1,16,-1,-1,18,-1,-1,20,22,-1,-1,-1,-1,-1,-1],"split_conditions":[7.735174E-2,1.02233075E-1,-2.8984553E-1,1.4186631E-1,2.6752448E-1,1.9822153E-1,2.6828024E-1,1.01848476E-1,-1.4262348E-1,1.8064965E-1,3.3605182E-1,3.513116E-1,7.5432464E-2,3.743939E-1,-7.028653E-2,3.0819064E-1,2.555371E-1,-1.0103165E-1,3.2827923E-1,-3.5855733E-2,5.392753E-1,4.930006E-1,3.1166608E-2],"split_indices":[1270,2309,0,1846,2309,2089,1846,581,0,1793,0,0,581,0,0,725,1793,0,0,0,0,0,0],"split_type":[0,0,0,0,0,0,0,0,0,0,0,0,0,0,0,0,0,0,0,0,0,0,0],"sum_hessian":[1.918242E2,1.8577452E2,6.049695E0,1.7438185E2,1.1392664E1,1.6662979E2,7.7520533E0,9.773995E0,1.6186683E0,1.6215909E2,4.470708E0,5.121883E0,2.6301703E0,8.756667E0,1.0173278E0,1.5868803E2,3.4710536E0,1.5203854E0,1.1097848E0,1.5765329E2,1.0347459E0,2.132926E0,1.3381276E0],"tree_param":{"num_deleted":"0","num_feature":"3000","num_nodes":"23","size_leaf_vector":"1"}},{"base_weights":[4.048718E-2,8.3241634E-2,-8.1232953E-1,6.1266355E-2,4.9309865E-1,-2.8763643E-1,-2.859795E-1,3.715758E-2,4.4880196E-1,-2.2024035E-1,1.0963707E-1,8.647408E-3,3.780676E-1,-4.2538594E-2,7.326192E-1,-2.3243451E-2,3.3814317E-1,3.226037E-1,6.522446E-2],"categories":[],"categories_nodes":[],"categories_segments":[],"categories_sizes":[],"default_left":[0,0,0,0,0,0,0,0,0,0,0,0,0,0,0,0,0,0,0],"id":14,"left_children":[1,3,5,7,-1,9,-1,11,-1,-1,-1,13,-1,15,17,-1,-1,-1,-1],"loss_changes":[6.9050045E0,6.0536895E0,3.946824E-1,6.102208E0,0E0,1.2443843E0,0E0,6.129924E0,0E0,0E0,0E0,6.4458485E0,0E0,6.7331867E0,1.7942152E0,0E0,0E0,0E0,0E0],"parents":[2147483647,0,0,1,1,2,2,3,3,5,5,7,7,11,11,13,13,14,14],"right_children":[2,4,6,8,-1,10,-1,12,-1,-1,-1,14,-1,16,18,-1,-1,-1,-1],"split_conditions":[1.2444064E-1,1.9559479E-1,1.7124337E-1,1.9735222E-1,4.9309865E-1,1.4981201E-1,-2.859795E-1,1.9924736E-1,4.4880196E-1,-2.2024035E-1,1.0963707E-1,1.1009557E-1,3.780676E-1,2.727379E-1,2.0082505E-1,-2.3243451E-2,3.3814317E-1,3.226037E-1,6.522446E-2],"split_indices":[1250,2839,1250,2770,0,1250,0,1523,0,0,0,2757,0,1721,2757,0,0,0,0],"split_type":[0,0,0,0,0,0,0,0,0,0,0,0,0,0,0,0,0,0,0],"sum_hessian":[1.8652232E2,1.7847708E2,8.045239E0,1.7702335E2,1.4537432E0,2.3473022E0,5.6979375E0,1.7510683E2,1.9165236E0,1.3204597E0,1.0268425E0,1.7210213E2,3.0046952E0,1.6161679E2,1.0485331E1,1.5783585E2,3.780952E0,5.6437507E0,4.8415804E0],"tree_param":{"num_deleted":"0","num_feature":"3000","num_nodes":"19","size_leaf_vector":"1"}},{"base_weights":[3.8807552E-2,7.922054E-2,-2.25549E-1,1.1716139E-1,-7.6531243E-1,6.944894E-2,8.445076E-1,-2.7363712E-1,-1.871001E-2,4.132892E-2,4.0107945E-1,2.9419073E-1,-5.016072E-2,1.23962425E-2,3.8979557E-1,-3.9313E-3,4.5305428E-1],"categories":[],"categories_nodes":[],"categories_segments":[],"categories_sizes":[],"default_left":[0,0,0,0,0,0,0,0,0,0,0,0,0,0,0,0,0],"id":15,"left_children":[1,3,-1,5,7,9,11,-1,-1,13,-1,-1,-1,15,-1,-1,-1],"loss_changes":[5.88083E0,5.6724887E0,0E0,5.7579713E0,7.298813E-1,5.5896974E0,1.5726404E0,0E0,0E0,5.6609235E0,0E0,0E0,0E0,5.881792E0,0E0,0E0,0E0],"parents":[2147483647,0,0,1,1,3,3,4,4,5,5,6,6,9,9,13,13],"right_children":[2,4,-1,6,8,10,12,-1,-1,14,-1,-1,-1,16,-1,-1,-1],"split_conditions":[1.659359E-1,1.3111074E-1,-2.25549E-1,1.3930175E-1,1.15117915E-1,2.025846E-1,1.4023128E-1,-2.7363712E-1,-1.871001E-2,2.144239E-1,4.0107945E-1,2.9419073E-1,-5.016072E-2,2.2459263E-1,3.8979557E-1,-3.9313E-3,4.5305428E-1],"split_indices":[1232,1511,0,2187,581,2088,2806,0,0,1365,0,0,0,740,0,0,0],"split_type":[0,0,0,0,0,0,0,0,0,0,0,0,0,0,0,0,0],"sum_hessian":[1.811878E2,1.7323291E2,7.9549E0,1.6660922E2,6.6236897E0,1.5738083E2,9.228386E0,5.233163E0,1.3905268E0,1.549752E2,2.4056304E0,8.161015E0,1.0673715E0,1.524782E2,2.4970126E0,1.5090028E2,1.5779063E0],"tree_param":{"num_deleted":"0","num_feature":"3000","num_nodes":"17","size_leaf_vector":"1"}},{"base_weights":[3.2469086E-2,8.329033E-3,4.0542397E-1,-1.2892975E-2,4.570496E-1,-3.3741694E-2,4.5926282E-1,-6.0151204E-2,3.665548E-1,-9.0226226E-2,3.1518328E-1,-3.3397146E-2,4.4679672E-1],"categories":[],"categories_nodes":[],"categories_segments":[],"categories_sizes":[],"default_left":[0,0,0,0,0,0,0,0,0,0,0,0,0],"id":16,"left_children":[1,3,-1,5,-1,7,-1,9,-1,11,-1,-1,-1],"loss_changes":[5.6729274E0,5.6893387E0,0E0,5.680284E0,0E0,5.82762E0,0E0,5.8041396E0,0E0,5.7417536E0,0E0,0E0,0E0],"parents":[2147483647,0,0,1,1,3,3,5,5,7,7,9,9],"right_children":[2,4,-1,6,-1,8,-1,10,-1,12,-1,-1,-1],"split_conditions":[1.964019E-1,1.8551588E-1,4.0542397E-1,2.1689603E-1,4.570496E-1,1.3700567E-1,4.5926282E-1,1.5716378E-1,3.665548E-1,2.0016707E-1,3.1518328E-1,-3.3397146E-2,4.4679672E-1],"split_indices":[2130,2860,0,2326,0,2703,0,677,0,2215,0,0,0],"split_type":[0,0,0,0,0,0,0,0,0,0,0,0,0],"sum_hessian":[1.7752682E2,1.7532426E2,2.2025676E0,1.7388033E2,1.4439393E0,1.7252846E2,1.3518668E0,1.6990681E2,2.6216462E0,1.6632224E2,3.5845745E0,1.6504727E2,1.274968E0],"tree_param":{"num_deleted":"0","num_feature":"3000","num_nodes":"13","size_leaf_vector":"1"}},{"base_weights":[3.8786806E-2,6.8545245E-2,-2.752799E-1,9.93502E-2,-2.6800102E-1,1.2994279E-1,-2.6579154E-1,1.5726414E-1,-2.471336E-1,1.8544637E-1,-2.4316938E-1,6.350691E-2,-2.6174963E-1],"categories":[],"categories_nodes":[],"categories_segments":[],"categories_sizes":[],"default_left":[0,0,0,0,0,0,0,0,0,0,0,0,0],"id":17,"left_children":[1,3,-1,5,-1,7,-1,9,-1,11,-1,-1,-1],"loss_changes":[5.0134892E0,5.1149273E0,0E0,5.0967445E0,0E0,4.328854E0,0E0,4.446493E0,0E0,4.4566655E0,0E0,0E0,0E0],"parents":[2147483647,0,0,1,1,3,3,5,5,7,7,9,9],"right_children":[2,4,-1,6,-1,8,-1,10,-1,12,-1,-1,-1],"split_conditions":[1.0239979E-1,7.735174E-2,-2.752799E-1,1.7124337E-1,-2.6800102E-1,2.187427E-1,-2.6579154E-1,1.8027523E-1,-2.471336E-1,1.7832953E-1,-2.4316938E-1,6.350691E-2,-2.6174963E-1],"split_indices":[1348,1633,0,1250,0,702,0,1511,0,366,0,0,0],"split_type":[0,0,0,0,0,0,0,0,0,0,0,0,0],"sum_hessian":[1.7294566E2,1.6862708E2,4.3185863E0,1.6426315E2,4.3639326E0,1.6015862E2,4.1045346E0,1.5651016E2,3.6484573E0,1.528672E2,3.6429522E0,1.4994753E2,2.9196835E0],"tree_param":{"num_deleted":"0","num_feature":"3000","num_nodes":"13","size_leaf_vector":"1"}},{"base_weights":[1.4368033E-2,-4.2716023E-3,4.4507268E-1,-2.9287357E-2,3.2924575E-1,-5.0503913E-2,4.0722302E-1,-7.518329E-2,3.427458E-1,-1.0577757E-1,9.3393743E-1,-3.833729E-2,3.906297E-1,3.0929616E-1,8.8703185E-2],"categories":[],"categories_nodes":[],"categories_segments":[],"categories_sizes":[],"default_left":[0,0,0,0,0,0,0,0,0,0,0,0,0,0,0],"id":18,"left_children":[1,3,-1,5,-1,7,-1,9,-1,11,13,-1,-1,-1,-1],"loss_changes":[4.7607403E0,4.784603E0,0E0,5.057706E0,0E0,5.0318065E0,0E0,5.2089562E0,0E0,5.173121E0,3.1585693E-3,0E0,0E0,0E0,0E0],"parents":[2147483647,0,0,1,1,3,3,5,5,7,7,9,9,10,10],"right_children":[2,4,-1,6,-1,8,-1,10,-1,12,14,-1,-1,-1,-1],"split_conditions":[2.2196265E-1,1.9653183E-1,4.4507268E-1,2.6287374E-1,3.2924575E-1,1.83647E-1,4.0722302E-1,1.6268522E-1,3.427458E-1,2.622888E-1,2.6545134E-1,-3.833729E-2,3.906297E-1,3.0929616E-1,8.8703185E-2],"split_indices":[2839,394,0,782,0,1533,0,2320,0,725,786,0,0,0,0],"split_type":[0,0,0,0,0,0,0,0,0,0,0,0,0,0,0],"sum_hessian":[1.7261028E2,1.7143243E2,1.1778473E0,1.6857823E2,2.8542054E0,1.669869E2,1.5913303E0,1.6452045E2,2.4664536E0,1.6054816E2,3.972283E0,1.5897173E2,1.5764322E0,2.9139047E0,1.0583782E0],"tree_param":{"num_deleted":"0","num_feature":"3000","num_nodes":"15","size_leaf_vector":"1"}},{"base_weights":[2.4669005E-2,3.7953458E-3,3.857543E-1,-1.7311111E-2,3.7964535E-1,-3.953313E-2,3.6531177E-1,-6.272357E-2,3.5801336E-1,-9.12856E-2,9.897352E-1,-3.423324E-2,3.797975E-1,4.174358E-1,2.2035582E-2],"categories":[],"categories_nodes":[],"categories_segments":[],"categories_sizes":[],"default_left":[0,0,0,0,0,0,0,0,0,0,0,0,0,0,0],"id":19,"left_children":[1,3,-1,5,-1,7,-1,9,-1,11,13,-1,-1,-1,-1],"loss_changes":[4.445005E0,4.4766626E0,0E0,4.5907316E0,0E0,4.7513695E0,0E0,4.944858E0,0E0,5.043683E0,1.499445E0,0E0,0E0,0E0,0E0],"parents":[2147483647,0,0,1,1,3,3,5,5,7,7,9,9,10,10],"right_children":[2,4,-1,6,-1,8,-1,10,-1,12,14,-1,-1,-1,-1],"split_conditions":[1.600858E-1,2.5398785E-1,3.857543E-1,1.891635E-1,3.7964535E-1,2.025846E-1,3.6531177E-1,1.8064965E-1,3.5801336E-1,2.1642649E-1,2.555371E-1,-3.423324E-2,3.797975E-1,4.174358E-1,2.2035582E-2],"split_indices":[47,1413,0,1194,0,2088,0,1793,0,2302,1793,0,0,0,0],"split_type":[0,0,0,0,0,0,0,0,0,0,0,0,0,0,0],"sum_hessian":[1.6803384E2,1.6628468E2,1.7491544E0,1.6451877E2,1.7659106E0,1.6256174E2,1.957031E0,1.604921E2,2.069651E0,1.5714081E2,3.3512828E0,1.5544267E2,1.6981369E0,1.9693125E0,1.3819704E0],"tree_param":{"num_deleted":"0","num_feature":"3000","num_nodes":"15","size_leaf_vector":"1"}},{"base_weights":[3.20601E-2,1.4210944E-2,4.4197178E-1,-6.9846604E-3,3.6679465E-1,2.5632607E-2,-2.662902E-1,-6.1195297E-3,2.7151906E-1,-3.2080833E-2,3.3526152E-1,-1.6695622E-2,3.6801934E-1],"categories":[],"categories_nodes":[],"categories_segments":[],"categories_sizes":[],"default_left":[0,0,0,0,0,0,0,0,0,0,0,0,0],"id":20,"left_children":[1,3,-1,5,-1,7,-1,9,-1,11,-1,-1,-1],"loss_changes":[4.2348933E0,4.2201495E0,0E0,4.693015E0,0E0,4.4106293E0,0E0,4.5064006E0,0E0,4.541621E0,0E0,0E0,0E0],"parents":[2147483647,0,0,1,1,3,3,5,5,7,7,9,9],"right_children":[2,4,-1,6,-1,8,-1,10,-1,12,-1,-1,-1],"split_conditions":[2.0736492E-1,1.964019E-1,4.4197178E-1,2.1595457E-1,3.6679465E-1,1.7655054E-1,-2.662902E-1,3.5966283E-1,2.7151906E-1,1.9528028E-1,3.3526152E-1,-1.6695622E-2,3.6801934E-1],"split_indices":[1412,2130,0,1217,0,614,0,1721,0,639,0,0,0],"split_type":[0,0,0,0,0,0,0,0,0,0,0,0,0],"sum_hessian":[1.6444307E2,1.6342885E2,1.014223E0,1.6158885E2,1.8399956E0,1.5675392E2,4.834919E0,1.5224994E2,4.5039916E0,1.4976126E2,2.488676E0,1.4794675E2,1.8145112E0],"tree_param":{"num_deleted":"0","num_feature":"3000","num_nodes":"13","size_leaf_vector":"1"}},{"base_weights":[3.207879E-2,1.2590677E-2,3.9152056E-1,-1.2878861E-2,1.0218872E0,-3.4135867E-2,3.968779E-1,4.076819E-1,2.8812783E-2,-6.159273E-2,2.870961E-1,-8.4334984E-2,3.6000204E-1,-3.181476E-2,3.7107334E-1],"categories":[],"categories_nodes":[],"categories_segments":[],"categories_sizes":[],"default_left":[0,0,0,0,0,0,0,0,0,0,0,0,0,0,0],"id":21,"left_children":[1,3,-1,5,7,9,-1,-1,-1,11,-1,13,-1,-1,-1],"loss_changes":[4.009799E0,4.1482067E0,0E0,4.52835E0,1.1089025E0,4.3147273E0,0E0,0E0,0E0,4.4942074E0,0E0,4.4729266E0,0E0,0E0,0E0],"parents":[2147483647,0,0,1,1,3,3,4,4,5,5,9,9,11,11],"right_children":[2,4,-1,6,8,10,-1,-1,-1,12,-1,14,-1,-1,-1],"split_conditions":[2.6745215E-1,1.738168E-1,3.9152056E-1,2.2459263E-1,2.2872773E-1,1.3649967E-1,3.968779E-1,4.076819E-1,2.8812783E-2,2.3010263E-1,2.870961E-1,1.9735222E-1,3.6000204E-1,-3.181476E-2,3.7107334E-1],"split_indices":[993,1984,0,740,1984,1863,0,0,0,52,0,2770,0,0,0],"split_type":[0,0,0,0,0,0,0,0,0,0,0,0,0,0,0],"sum_hessian":[1.6129454E2,1.598572E2,1.4373524E0,1.5688544E2,2.971755E0,1.5538716E2,1.49827E0,1.8356905E0,1.1360645E0,1.5211111E2,3.276046E0,1.5033427E2,1.7768517E0,1.488084E2,1.5258784E0],"tree_param":{"num_deleted":"0","num_feature":"3000","num_nodes":"15","size_leaf_vector":"1"}},{"base_weights":[3.7513435E-2,1.8970182E-2,3.957487E-1,-6.479639E-3,2.9370776E-1,-2.5414135E-2,3.9473742E-1,-4.4002406E-2,3.9253792E-1,-6.709882E-2,3.1092802E-1,-3.580787E-2,1.4093015E-1],"categories":[],"categories_nodes":[],"categories_segments":[],"categories_sizes":[],"default_left":[0,0,0,0,0,0,0,0,0,0,0,0,0],"id":22,"left_children":[1,3,-1,5,-1,7,-1,9,-1,11,-1,-1,-1],"loss_changes":[3.7523797E0,3.8592153E0,0E0,3.904362E0,0E0,3.8612673E0,0E0,3.8692513E0,0E0,4.2651997E0,0E0,0E0,0E0],"parents":[2147483647,0,0,1,1,3,3,5,5,7,7,9,9],"right_children":[2,4,-1,6,-1,8,-1,10,-1,12,-1,-1,-1],"split_conditions":[1.8551588E-1,1.9822153E-1,3.957487E-1,2.1689603E-1,2.9370776E-1,2.5192937E-1,3.9473742E-1,1.9143082E-1,3.9253792E-1,1.2716244E-1,3.1092802E-1,-3.580787E-2,1.4093015E-1],"split_indices":[2860,2089,0,2326,0,690,0,2411,0,1158,0,0,0],"split_type":[0,0,0,0,0,0,0,0,0,0,0,0,0],"sum_hessian":[1.5794194E2,1.5668971E2,1.2522293E0,1.5361095E2,3.0787745E0,1.5240927E2,1.2016717E0,1.5126828E2,1.1409956E0,1.4902054E2,2.2477274E0,1.365098E2,1.2510751E1],"tree_param":{"num_deleted":"0","num_feature":"3000","num_nodes":"13","size_leaf_vector":"1"}},{"base_weights":[3.9476857E-2,6.4586364E-2,-2.6331162E-1,3.7640184E-2,3.7511125E-1,6.846589E-2,-2.1978179E-1,3.4202296E-2,7.6228136E-1,6.645429E-2,-2.271138E-1,1.2931695E0,-1.9096968E-1,-6.8100607E-3,1.0529835E-1,4.4166353E-1,1.0214771E-1,-7.4737534E-2,-8.729642E-3],"categories":[],"categories_nodes":[],"categories_segments":[],"categories_sizes":[],"default_left":[0,0,0,0,0,0,0,0,0,0,0,0,0,0,0,0,0,0,0],"id":23,"left_children":[1,3,-1,5,-1,7,-1,9,11,13,-1,15,17,-1,-1,-1,-1,-1,-1],"loss_changes":[3.6359985E0,4.816388E0,0E0,3.6083062E0,0E0,3.421109E0,0E0,3.6033502E0,3.6766233E0,3.4249349E0,0E0,2.6313496E-1,2.3773827E-2,0E0,0E0,0E0,0E0,0E0,0E0],"parents":[2147483647,0,0,1,1,3,3,5,5,7,7,8,8,9,9,11,11,12,12],"right_children":[2,4,-1,6,-1,8,-1,10,12,14,-1,16,18,-1,-1,-1,-1,-1,-1],"split_conditions":[1.711842E-1,1.7275077E-1,-2.6331162E-1,1.5323833E-1,3.7511125E-1,1.4985082E-1,-2.1978179E-1,1.2444064E-1,1.9142658E-1,1.1327828E-1,-2.271138E-1,1.0151671E-1,2.754964E-1,-6.8100607E-3,1.0529835E-1,4.4166353E-1,1.0214771E-1,-7.4737534E-2,-8.729642E-3],"split_indices":[2944,644,0,1622,0,809,0,1250,809,581,0,2309,809,0,0,0,0,0,0],"split_type":[0,0,0,0,0,0,0,0,0,0,0,0,0,0,0,0,0,0,0],"sum_hessian":[1.5441953E2,1.5120947E2,3.210049E0,1.488585E2,2.3509703E0,1.440064E2,4.8521094E0,1.3822934E2,5.777064E0,1.3369579E2,4.5335484E0,3.481529E0,2.295535E0,1.02499886E2,3.1195898E1,2.4716716E0,1.0098572E0,1.2922368E0,1.0032983E0],"tree_param":{"num_deleted":"0","num_feature":"3000","num_nodes":"19","size_leaf_vector":"1"}},{"base_weights":[2.811932E-2,8.506594E-3,3.4583497E-1,-1.1555352E-2,3.312384E-1,-3.2995254E-2,3.1546405E-1,-5.1085595E-2,3.783194E-1,-7.205715E-2,3.2729387E-1,-2.80594E-2,3.2632256E-1],"categories":[],"categories_nodes":[],"categories_segments":[],"categories_sizes":[],"default_left":[0,0,0,0,0,0,0,0,0,0,0,0,0],"id":24,"left_children":[1,3,-1,5,-1,7,-1,9,-1,11,-1,-1,-1],"loss_changes":[3.3609114E0,3.3362167E0,0E0,3.4415934E0,0E0,3.5170956E0,0E0,3.5853786E0,0E0,3.7059176E0,0E0,0E0,0E0],"parents":[2147483647,0,0,1,1,3,3,5,5,7,7,9,9],"right_children":[2,4,-1,6,-1,8,-1,10,-1,12,-1,-1,-1],"split_conditions":[2.390621E-1,2.622888E-1,3.4583497E-1,1.3700567E-1,3.312384E-1,2.2196265E-1,3.1546405E-1,2.025846E-1,3.783194E-1,1.806177E-1,3.2729387E-1,-2.80594E-2,3.2632256E-1],"split_indices":[2459,725,0,2703,0,2839,0,2088,0,806,0,0,0],"split_type":[0,0,0,0,0,0,0,0,0,0,0,0,0],"sum_hessian":[1.5181349E2,1.5020172E2,1.6117656E0,1.4847249E2,1.72923E0,1.464872E2,1.9852883E0,1.4541489E2,1.0723078E0,1.4371283E2,1.7020687E0,1.4200293E2,1.7098908E0],"tree_param":{"num_deleted":"0","num_feature":"3000","num_nodes":"13","size_leaf_vector":"1"}},{"base_weights":[3.3904213E-2,5.6589283E-2,-2.704365E-1,8.109912E-2,-2.4715643E-1,1.0481278E-1,-2.4510647E-1,1.2973884E-1,-2.3718494E-1,1.5342675E-1,-2.4980731E-1,5.3438805E-2,-2.3414162E-1],"categories":[],"categories_nodes":[],"categories_segments":[],"categories_sizes":[],"default_left":[0,0,0,0,0,0,0,0,0,0,0,0,0],"id":25,"left_children":[1,3,-1,5,-1,7,-1,9,-1,11,-1,-1,-1],"loss_changes":[3.236003E0,3.249576E0,0E0,3.1611433E0,0E0,3.262507E0,0E0,3.2875953E0,0E0,3.2792013E0,0E0,0E0,0E0],"parents":[2147483647,0,0,1,1,3,3,5,5,7,7,9,9],"right_children":[2,4,-1,6,-1,8,-1,10,-1,12,-1,-1,-1],"split_conditions":[8.883614E-2,7.735174E-2,-2.704365E-1,1.4412357E-1,-2.4715643E-1,2.562025E-1,-2.4510647E-1,8.521296E-2,-2.3718494E-1,1.0239979E-1,-2.4980731E-1,5.3438805E-2,-2.3414162E-1],"split_indices":[1532,1270,0,791,0,1904,0,2273,0,1348,0,0,0],"split_type":[0,0,0,0,0,0,0,0,0,0,0,0,0],"sum_hessian":[1.4910307E2,1.4648979E2,2.613286E0,1.4340555E2,3.0842416E0,1.405771E2,2.8284488E0,1.3760179E2,2.9753113E0,1.3511679E2,2.4849935E0,1.3242332E2,2.6934721E0],"tree_param":{"num_deleted":"0","num_feature":"3000","num_nodes":"13","size_leaf_vector":"1"}},{"base_weights":[1.1052539E-2,-6.0103466E-3,3.505522E-1,-2.4263676E-2,3.2802013E-1,-4.1821092E-2,3.44188E-1,-6.58487E-2,2.4823768E-1,-8.435646E-2,3.3427346E-1,-3.6274962E-2,1.5803593E-1],"categories":[],"categories_nodes":[],"categories_segments":[],"categories_sizes":[],"default_left":[0,0,0,0,0,0,0,0,0,0,0,0,0],"id":26,"left_children":[1,3,-1,5,-1,7,-1,9,-1,11,-1,-1,-1],"loss_changes":[2.9714773E0,3.0149798E0,0E0,3.0812247E0,0E0,3.109183E0,0E0,3.2225509E0,0E0,3.235592E0,0E0,0E0,0E0],"parents":[2147483647,0,0,1,1,3,3,5,5,7,7,9,9],"right_children":[2,4,-1,6,-1,8,-1,10,-1,12,-1,-1,-1],"split_conditions":[1.6489393E-1,2.6287374E-1,3.505522E-1,2.0016707E-1,3.2802013E-1,1.8211381E-1,3.44188E-1,1.9735222E-1,2.4823768E-1,1.4887689E-1,3.3427346E-1,-3.6274962E-2,1.5803593E-1],"split_indices":[2018,782,0,2215,0,698,0,2770,0,2510,0,0,0],"split_type":[0,0,0,0,0,0,0,0,0,0,0,0,0],"sum_hessian":[1.4910262E2,1.4791687E2,1.1857431E0,1.4646309E2,1.4537716E0,1.4525061E2,1.2124797E0,1.4224315E2,3.0074675E0,1.4096094E2,1.2822148E0,1.3376115E2,7.1997776E0],"tree_param":{"num_deleted":"0","num_feature":"3000","num_nodes":"13","size_leaf_vector":"1"}},{"base_weights":[1.9872699E-2,4.9250543E-2,-1.9307901E-1,6.886426E-2,-2.626487E-1,2.9419154E-2,6.2635857E-1,5.795496E-2,-2.4657822E-1,3.2938793E-1,3.2574213E-1,3.4192204E-2,3.256942E-1,1.6835469E-1,1.7935185E-1,2.0099936E-2,-2.4015532E-1,1.1416137E-1,-5.250009E-2],"categories":[],"categories_nodes":[],"categories_segments":[],"categories_sizes":[],"default_left":[0,0,0,0,0,0,0,0,0,0,0,0,0,0,0,0,0,0,0],"id":27,"left_children":[1,3,-1,5,-1,7,9,11,-1,-1,13,15,-1,17,-1,-1,-1,-1,-1],"loss_changes":[2.8947284E0,2.6283784E0,0E0,3.0508792E0,0E0,3.239872E0,9.4290805E-1,3.0905395E0,0E0,0E0,2.0016342E-1,3.5099185E0,0E0,4.9222112E-1,0E0,0E0,0E0,0E0,0E0],"parents":[2147483647,0,0,1,1,3,3,5,5,6,6,7,7,10,10,11,11,13,13],"right_children":[2,4,-1,6,-1,8,10,12,-1,-1,14,16,-1,18,-1,-1,-1,-1,-1],"split_conditions":[1.659359E-1,1.6011557E-1,-1.9307901E-1,2.0030591E-1,-2.626487E-1,1.7724001E-1,2.1463028E-1,1.7275077E-1,-2.4657822E-1,3.2938793E-1,5.915542E-2,8.2278445E-2,3.256942E-1,3.198955E-1,1.7935185E-1,2.0099936E-2,-2.4015532E-1,1.1416137E-1,-5.250009E-2],"split_indices":[1232,2565,0,2633,0,1904,2633,644,0,0,1158,1622,0,2633,0,0,0,0,0],"split_type":[0,0,0,0,0,0,0,0,0,0,0,0,0,0,0,0,0,0,0],"sum_hessian":[1.4588763E2,1.4058829E2,5.2993584E0,1.3857466E2,2.0136154E0,1.30401E2,8.17366E0,1.2707362E2,3.3273838E0,2.1493855E0,6.024275E0,1.2521169E2,1.8619286E0,4.842177E0,1.1820979E0,1.2136142E2,3.8502767E0,2.9258163E0,1.9163605E0],"tree_param":{"num_deleted":"0","num_feature":"3000","num_nodes":"19","size_leaf_vector":"1"}},{"base_weights":[1.2046013E-2,-7.761928E-3,2.8896075E-1,-2.4919225E-2,3.3293492E-1,-4.5498885E-2,9.343523E-1,-8.1962615E-2,5.3351283E-1,3.749114E-1,4.5488E-2,-1.00775085E-1,3.2479733E-1,2.1998768E-1,2.7707404E-1,-3.6235034E-2,2.9723945E-1,-9.761768E-2,1.5047692E-1],"categories":[],"categories_nodes":[],"categories_segments":[],"categories_sizes":[],"default_left":[0,0,0,0,0,0,0,0,0,0,0,0,0,0,0,0,0,0,0],"id":28,"left_children":[1,3,-1,5,-1,7,9,11,13,-1,-1,15,-1,-1,17,-1,-1,-1,-1],"loss_changes":[2.7473347E0,2.7781641E0,0E0,2.850907E0,0E0,3.0042741E0,5.594735E-1,3.0183115E0,2.2925234E-1,0E0,0E0,2.9936225E0,0E0,0E0,8.8058823E-1,0E0,0E0,0E0,0E0],"parents":[2147483647,0,0,1,1,3,3,5,5,6,6,7,7,8,8,11,11,14,14],"right_children":[2,4,-1,6,-1,8,10,12,14,-1,-1,16,-1,-1,18,-1,-1,-1,-1],"split_conditions":[2.144239E-1,2.1642649E-1,2.8896075E-1,1.6507594E-1,3.3293492E-1,1.3930175E-1,2.0006128E-1,2.0430943E-1,2.0680901E-1,3.749114E-1,4.5488E-2,2.6745215E-1,3.2479733E-1,2.1998768E-1,2.1881709E-1,-3.6235034E-2,2.9723945E-1,-9.761768E-2,1.5047692E-1],"split_indices":[1365,2302,0,1733,0,2187,1733,921,2187,0,0,993,0,0,2187,0,0,0,0],"split_type":[0,0,0,0,0,0,0,0,0,0,0,0,0,0,0,0,0,0,0],"sum_hessian":[1.4442426E2,1.4244957E2,1.974689E0,1.4125858E2,1.1909941E0,1.392243E2,2.034269E0,1.3178358E2,7.440733E0,1.0247865E0,1.0094826E0,1.3058763E2,1.1959525E0,3.1371815E0,4.3035517E0,1.291104E2,1.4772228E0,1.0463809E0,3.2571707E0],"tree_param":{"num_deleted":"0","num_feature":"3000","num_nodes":"19","size_leaf_vector":"1"}},{"base_weights":[2.2579536E-2,8.5476204E-4,2.5312492E-1,-2.1138018E-2,2.5629845E-1,-3.930675E-2,3.419727E-1,-7.994909E-2,4.7139484E-1,-1.0175183E-1,2.938798E-1,6.373904E-1,-1.564781E-1,-3.8368102E-2,2.4898283E-1,2.546568E-1,9.7628616E-2],"categories":[],"categories_nodes":[],"categories_segments":[],"categories_sizes":[],"default_left":[0,0,0,0,0,0,0,0,0,0,0,0,0,0,0,0,0],"id":29,"left_children":[1,3,-1,5,-1,7,-1,9,11,13,-1,15,-1,-1,-1,-1,-1],"loss_changes":[2.5339234E0,2.6349638E0,0E0,2.9324915E0,0E0,2.8553033E0,0E0,3.0242E0,2.0057852E0,3.1494627E0,0E0,3.2723045E-1,0E0,0E0,0E0,0E0,0E0],"parents":[2147483647,0,0,1,1,3,3,5,5,7,7,8,8,9,9,11,11],"right_children":[2,4,-1,6,-1,8,-1,10,12,14,-1,16,-1,-1,-1,-1,-1],"split_conditions":[3.46716E-1,1.738168E-1,2.5312492E-1,2.2459263E-1,2.5629845E-1,1.02233075E-1,3.419727E-1,2.550969E-1,2.6752448E-1,1.8064965E-1,2.938798E-1,1.9336332E-1,-1.564781E-1,-3.8368102E-2,2.4898283E-1,2.546568E-1,9.7628616E-2],"split_indices":[1721,1984,0,740,0,2309,0,1194,2309,1793,0,2309,0,0,0,0,0],"split_type":[0,0,0,0,0,0,0,0,0,0,0,0,0,0,0,0,0],"sum_hessian":[1.4107861E2,1.384177E2,2.66092E0,1.358912E2,2.526488E0,1.3474872E2,1.1424798E0,1.2559699E2,9.151731E0,1.23950386E2,1.6466081E0,8.147793E0,1.0039382E0,1.2140664E2,2.5437434E0,3.8303409E0,4.3174515E0],"tree_param":{"num_deleted":"0","num_feature":"3000","num_nodes":"17","size_leaf_vector":"1"}},{"base_weights":[2.6648682E-2,9.920413E-3,3.29346E-1,-8.098127E-3,3.0629852E-1,-2.9730843E-2,2.5915816E-1,-4.8961755E-2,2.875963E-1,-6.733282E-2,3.0378973E-1,-2.5955662E-2,2.9265684E-1],"categories":[],"categories_nodes":[],"categories_segments":[],"categories_sizes":[],"default_left":[0,0,0,0,0,0,0,0,0,0,0,0,0],"id":30,"left_children":[1,3,-1,5,-1,7,-1,9,-1,11,-1,-1,-1],"loss_changes":[2.4927623E0,2.5329766E0,0E0,2.6126864E0,0E0,2.6090543E0,0E0,2.665414E0,0E0,2.7224083E0,0E0,0E0,0E0],"parents":[2147483647,0,0,1,1,3,3,5,5,7,7,9,9],"right_children":[2,4,-1,6,-1,8,-1,10,-1,12,-1,-1,-1],"split_conditions":[2.1689603E-1,2.025846E-1,3.29346E-1,1.9822153E-1,3.0629852E-1,1.3700567E-1,2.5915816E-1,2.6362133E-1,2.875963E-1,1.83647E-1,3.0378973E-1,-2.5955662E-2,2.9265684E-1],"split_indices":[2326,2088,0,2089,0,2703,0,726,0,1533,0,0,0],"split_type":[0,0,0,0,0,0,0,0,0,0,0,0,0],"sum_hessian":[1.3872185E2,1.375825E2,1.1393373E0,1.3614818E2,1.4343302E0,1.3379472E2,2.3534548E0,1.321735E2,1.621224E0,1.3084576E2,1.3277336E0,1.2938248E2,1.463292E0],"tree_param":{"num_deleted":"0","num_feature":"3000","num_nodes":"13","size_leaf_vector":"1"}},{"base_weights":[3.2823503E-2,5.5123188E-2,-2.2696052E-1,3.4116987E-2,3.5603207E-1,1.5929867E-2,2.9671788E-1,3.8211968E-2,-2.3876001E-1,5.963834E-2,-2.3223194E-1,2.438973E-2,-2.2054738E-1],"categories":[],"categories_nodes":[],"categories_segments":[],"categories_sizes":[],"default_left":[0,0,0,0,0,0,0,0,0,0,0,0,0],"id":31,"left_children":[1,3,-1,5,-1,7,-1,9,-1,11,-1,-1,-1],"loss_changes":[2.4512749E0,3.146334E0,0E0,2.287997E0,0E0,2.4033277E0,0E0,2.2850301E0,0E0,2.2333746E0,0E0,0E0,0E0],"parents":[2147483647,0,0,1,1,3,3,5,5,7,7,9,9],"right_children":[2,4,-1,6,-1,8,-1,10,-1,12,-1,-1,-1],"split_conditions":[1.7322148E-1,1.9139953E-1,-2.2696052E-1,2.280999E-1,3.5603207E-1,1.0819758E-1,2.9671788E-1,2.3118103E-1,-2.3876001E-1,2.187427E-1,-2.3223194E-1,2.438973E-2,-2.2054738E-1],"split_indices":[1352,2965,0,1324,0,2504,0,1572,0,702,0,0,0],"split_type":[0,0,0,0,0,0,0,0,0,0,0,0,0],"sum_hessian":[1.3588849E2,1.3305966E2,2.82882E0,1.3164613E2,1.4135267E0,1.3018344E2,1.4626949E0,1.2763311E2,2.5503306E0,1.25255844E2,2.3772676E0,1.2280668E2,2.449167E0],"tree_param":{"num_deleted":"0","num_feature":"3000","num_nodes":"13","size_leaf_vector":"1"}},{"base_weights":[1.947441E-2,1.2204829E-3,2.777778E-1,-1.649092E-2,2.839684E-1,-3.2779563E-2,3.1150773E-1,-5.257521E-2,2.5775E-1,-2.7775768E-2,-2.4451484E-1,-1.389642E-2,2.8122035E-1],"categories":[],"categories_nodes":[],"categories_segments":[],"categories_sizes":[],"default_left":[0,0,0,0,0,0,0,0,0,0,0,0,0],"id":32,"left_children":[1,3,-1,5,-1,7,-1,9,-1,11,-1,-1,-1],"loss_changes":[2.259706E0,2.2749689E0,0E0,2.3268511E0,0E0,2.3826003E0,0E0,2.44404E0,0E0,2.3234363E0,0E0,0E0,0E0],"parents":[2147483647,0,0,1,1,3,3,5,5,7,7,9,9],"right_children":[2,4,-1,6,-1,8,-1,10,-1,12,-1,-1,-1],"split_conditions":[2.622888E-1,1.8734318E-1,2.777778E-1,1.8551588E-1,2.839684E-1,1.9924736E-1,3.1150773E-1,1.3816878E-1,2.5775E-1,2.542731E-1,-2.4451484E-1,-1.389642E-2,2.8122035E-1],"split_indices":[725,2951,0,2860,0,1523,0,1511,0,2320,0,0,0],"split_type":[0,0,0,0,0,0,0,0,0,0,0,0,0],"sum_hessian":[1.3563695E2,1.3394102E2,1.6959292E0,1.3244221E2,1.4988114E0,1.3138237E2,1.059838E0,1.2945044E2,1.9319373E0,1.2637647E2,3.073961E0,1.24928024E2,1.4484525E0],"tree_param":{"num_deleted":"0","num_feature":"3000","num_nodes":"13","size_leaf_vector":"1"}},{"base_weights":[2.18359E-2,4.163829E-2,-2.3850481E-1,6.268886E-2,-2.2689737E-1,8.226617E-2,-2.4547987E-1,1.0314428E-1,-2.2413778E-1,8.130774E-2,3.0948895E-1,1.4631397E-2,2.5437877E-1],"categories":[],"categories_nodes":[],"categories_segments":[],"categories_sizes":[],"default_left":[0,0,0,0,0,0,0,0,0,0,0,0,0],"id":33,"left_children":[1,3,-1,5,-1,7,-1,9,-1,11,-1,-1,-1],"loss_changes":[2.218504E0,2.2790902E0,0E0,2.3157005E0,0E0,2.3011537E0,0E0,2.4741106E0,0E0,3.0603662E0,0E0,0E0,0E0],"parents":[2147483647,0,0,1,1,3,3,5,5,7,7,9,9],"right_children":[2,4,-1,6,-1,8,-1,10,-1,12,-1,-1,-1],"split_conditions":[1.968745E-1,1.3651957E-1,-2.3850481E-1,8.883614E-2,-2.2689737E-1,7.735174E-2,-2.4547987E-1,1.9143082E-1,-2.2413778E-1,1.4414129E-1,3.0948895E-1,1.4631397E-2,2.5437877E-1],"split_indices":[1328,1609,0,1532,0,1270,0,2411,0,1756,0,0,0],"split_type":[0,0,0,0,0,0,0,0,0,0,0,0,0],"sum_hessian":[1.3410463E2,1.3185713E2,2.2474973E0,1.2936586E2,2.4912827E0,1.27440384E2,1.9254684E0,1.2516527E2,2.27512E0,1.2335179E2,1.8134731E0,1.1935004E2,4.001753E0],"tree_param":{"num_deleted":"0","num_feature":"3000","num_nodes":"13","size_leaf_vector":"1"}},{"base_weights":[1.17053315E-2,-4.0527354E-3,3.0186597E-1,-2.1283159E-2,2.8068635E-1,1.168477E-3,-2.326655E-1,2.2571431E-2,-2.3881547E-1,5.8234986E-3,3.1665152E-1,-3.9540995E-3,2.6942724E-1],"categories":[],"categories_nodes":[],"categories_segments":[],"categories_sizes":[],"default_left":[0,0,0,0,0,0,0,0,0,0,0,0,0],"id":34,"left_children":[1,3,-1,5,-1,7,-1,9,-1,11,-1,-1,-1],"loss_changes":[2.1031983E0,2.1708965E0,0E0,2.226723E0,0E0,2.2128594E0,0E0,2.177826E0,0E0,2.1354024E0,0E0,0E0,0E0],"parents":[2147483647,0,0,1,1,3,3,5,5,7,7,9,9],"right_children":[2,4,-1,6,-1,8,-1,10,-1,12,-1,-1,-1],"split_conditions":[1.600858E-1,2.390621E-1,3.0186597E-1,1.7980488E-1,2.8068635E-1,1.1102669E-1,-2.326655E-1,1.6489393E-1,-2.3881547E-1,1.6507594E-1,3.1665152E-1,-3.9540995E-3,2.6942724E-1],"split_indices":[47,2459,0,1912,0,1800,0,2018,0,1733,0,0,0],"split_type":[0,0,0,0,0,0,0,0,0,0,0,0,0],"sum_hessian":[1.3294398E2,1.3185074E2,1.093248E0,1.3043634E2,1.4144084E0,1.27635574E2,2.8007634E0,1.2524481E2,2.3907583E0,1.2423609E2,1.0087199E0,1.2260993E2,1.6261622E0],"tree_param":{"num_deleted":"0","num_feature":"3000","num_nodes":"13","size_leaf_vector":"1"}},{"base_weights":[1.281175E-2,-3.2641802E-3,2.8190282E-1,-1.9093053E-2,2.8396273E-1,-3.975612E-2,2.2094396E-1,-1.2353431E-2,-2.2075625E-1,-3.6102246E-2,7.290067E-1,-1.6983073E-2,2.800946E-1,3.092149E-1,7.787639E-3],"categories":[],"categories_nodes":[],"categories_segments":[],"categories_sizes":[],"default_left":[0,0,0,0,0,0,0,0,0,0,0,0,0,0,0],"id":35,"left_children":[1,3,-1,5,-1,7,-1,9,-1,11,13,-1,-1,-1,-1],"loss_changes":[1.9797639E0,1.9935459E0,0E0,2.0623882E0,0E0,2.4268928E0,0E0,2.2075088E0,0E0,2.4591284E0,7.9892373E-1,0E0,0E0,0E0,0E0],"parents":[2147483647,0,0,1,1,3,3,5,5,7,7,9,9,10,10],"right_children":[2,4,-1,6,-1,8,-1,10,-1,12,14,-1,-1,-1,-1],"split_conditions":[2.5398785E-1,2.025846E-1,2.8190282E-1,2.2516598E-1,2.8396273E-1,1.2444064E-1,2.2094396E-1,1.5743664E-1,-2.2075625E-1,1.2679955E-1,2.52809E-1,-1.6983073E-2,2.800946E-1,3.092149E-1,7.787639E-3],"split_indices":[1413,2088,0,614,0,1250,0,2896,0,1849,2896,0,0,0,0],"split_type":[0,0,0,0,0,0,0,0,0,0,0,0,0,0,0],"sum_hessian":[1.3166237E2,1.3039719E2,1.2651863E0,1.2922353E2,1.1736593E0,1.2670582E2,2.517711E0,1.2288602E2,3.8198006E0,1.1999343E2,2.892581E0,1.1843053E2,1.5629085E0,1.6978768E0,1.194704E0],"tree_param":{"num_deleted":"0","num_feature":"3000","num_nodes":"15","size_leaf_vector":"1"}},{"base_weights":[1.7598942E-2,3.4415778E-2,-2.5352907E-1,3.7225222E-3,5.7680774E-1,-1.34797385E-2,3.0709103E-1,2.5471428E-1,1.3013479E-1,-3.010802E-2,2.8474498E-1,-1.2587459E-2,8.924826E-2,-5.066208E-2,2.228754E-1,-2.0165682E-2,2.8361478E-1],"categories":[],"categories_nodes":[],"categories_segments":[],"categories_sizes":[],"default_left":[0,0,0,0,0,0,0,0,0,0,0,0,0,0,0,0,0],"id":36,"left_children":[1,3,-1,5,7,9,-1,-1,11,13,-1,-1,-1,15,-1,-1,-1],"loss_changes":[1.926351E0,2.149342E0,0E0,2.1774392E0,7.3040175E-1,1.9856137E0,0E0,0E0,1.2191743E-1,1.9626551E0,0E0,0E0,0E0,2.0252547E0,0E0,0E0,0E0],"parents":[2147483647,0,0,1,1,3,3,4,4,5,5,8,8,9,9,13,13],"right_children":[2,4,-1,6,8,10,-1,-1,12,14,-1,-1,-1,16,-1,-1,-1],"split_conditions":[1.3043572E-1,1.1009557E-1,-2.5352907E-1,1.9139953E-1,2.1777698E-1,1.9434065E-1,3.0709103E-1,2.5471428E-1,3.1139812E-1,3.5966283E-1,2.8474498E-1,-1.2587459E-2,8.924826E-2,1.3861118E-1,2.228754E-1,-2.0165682E-2,2.8361478E-1],"split_indices":[1393,2757,0,2965,2757,516,0,0,2757,1721,0,0,0,2130,0,0,0],"split_type":[0,0,0,0,0,0,0,0,0,0,0,0,0,0,0,0,0],"sum_hessian":[1.2977548E2,1.2823584E2,1.5396402E0,1.22320724E2,5.915108E0,1.2126225E2,1.0584718E0,3.1154602E0,2.799648E0,1.2015543E2,1.1068192E0,1.7497259E0,1.0499221E0,1.1795362E2,2.2018175E0,1.16942245E2,1.0113701E0],"tree_param":{"num_deleted":"0","num_feature":"3000","num_nodes":"17","size_leaf_vector":"1"}},{"base_weights":[2.1963751E-2,4.0998034E-2,-2.2400574E-1,6.057037E-2,-2.1900609E-1,7.967135E-2,-2.2889978E-1,9.855371E-2,-2.1943788E-1,1.1774713E-1,-2.1338664E-1,4.105279E-2,-2.1926753E-1],"categories":[],"categories_nodes":[],"categories_segments":[],"categories_sizes":[],"default_left":[0,0,0,0,0,0,0,0,0,0,0,0,0],"id":37,"left_children":[1,3,-1,5,-1,7,-1,9,-1,11,-1,-1,-1],"loss_changes":[1.9112763E0,1.9514333E0,0E0,2.014242E0,0E0,1.9447726E0,0E0,1.9547255E0,0E0,2.0193632E0,0E0,0E0,0E0],"parents":[2147483647,0,0,1,1,3,3,5,5,7,7,9,9],"right_children":[2,4,-1,6,-1,8,-1,10,-1,12,-1,-1,-1],"split_conditions":[1.711842E-1,1.1032184E-1,-2.2400574E-1,2.3855233E-1,-2.1900609E-1,8.521296E-2,-2.2889978E-1,1.4412357E-1,-2.1943788E-1,2.4486865E-1,-2.1338664E-1,4.105279E-2,-2.1926753E-1],"split_indices":[2944,2884,0,402,0,2273,0,791,0,2973,0,0,0],"split_type":[0,0,0,0,0,0,0,0,0,0,0,0,0],"sum_hessian":[1.2754235E2,1.25384094E2,2.158259E0,1.23178635E2,2.2054548E0,1.2126931E2,1.9093281E0,1.1936901E2,1.900299E0,1.1744026E2,1.9287515E0,1.1567615E2,1.764116E0],"tree_param":{"num_deleted":"0","num_feature":"3000","num_nodes":"13","size_leaf_vector":"1"}},{"base_weights":[3.3494178E-3,-1.3943077E-2,2.4227193E-1,-2.964398E-2,2.6404223E-1,-4.666567E-2,2.4512348E-1,-6.2977396E-2,2.5652987E-1,-7.948635E-2,2.5299305E-1,-2.909304E-2,2.4004604E-1],"categories":[],"categories_nodes":[],"categories_segments":[],"categories_sizes":[],"default_left":[0,0,0,0,0,0,0,0,0,0,0,0,0],"id":38,"left_children":[1,3,-1,5,-1,7,-1,9,-1,11,-1,-1,-1],"loss_changes":[1.8019333E0,1.8093699E0,0E0,1.8513559E0,0E0,1.8818523E0,0E0,1.9073125E0,0E0,1.9501636E0,0E0,0E0,0E0],"parents":[2147483647,0,0,1,1,3,3,5,5,7,7,9,9],"right_children":[2,4,-1,6,-1,8,-1,10,-1,12,-1,-1,-1],"split_conditions":[1.9653183E-1,2.6287374E-1,2.4227193E-1,2.144239E-1,2.6404223E-1,2.3010263E-1,2.4512348E-1,2.542731E-1,2.5652987E-1,2.280999E-1,2.5299305E-1,-2.909304E-2,2.4004604E-1],"split_indices":[394,782,0,1365,0,52,0,2320,0,1324,0,0,0],"split_type":[0,0,0,0,0,0,0,0,0,0,0,0,0],"sum_hessian":[1.2776027E2,1.2603296E2,1.7273101E0,1.2480806E2,1.2248958E0,1.2327475E2,1.5333099E0,1.2199813E2,1.276621E0,1.2071154E2,1.28659E0,1.1923055E2,1.4809837E0],"tree_param":{"num_deleted":"0","num_feature":"3000","num_nodes":"13","size_leaf_vector":"1"}},{"base_weights":[1.4473784E-2,3.3053827E-2,-2.1097185E-1,5.1419698E-2,-2.1270241E-1,1.9885853E-2,5.658572E-1,4.0488735E-2,-2.1411873E-1,2.3589878E-1,2.945003E-1,2.2423169E-2,2.6243395E-1,-3.5135206E-2,1.3461699E-1,1.4031385E-2,-1.9562465E-1],"categories":[],"categories_nodes":[],"categories_segments":[],"categories_sizes":[],"default_left":[0,0,0,0,0,0,0,0,0,0,0,0,0,0,0,0,0],"id":39,"left_children":[1,3,-1,5,-1,7,9,11,-1,-1,13,15,-1,-1,-1,-1,-1],"loss_changes":[1.7072645E0,1.727123E0,0E0,1.9676758E0,0E0,1.7818815E0,1.8777084E-1,1.6949344E0,0E0,0E0,3.5350725E-1,1.8759923E0,0E0,0E0,0E0,0E0,0E0],"parents":[2147483647,0,0,1,1,3,3,5,5,6,6,7,7,10,10,11,11],"right_children":[2,4,-1,6,-1,8,10,12,-1,-1,14,16,-1,-1,-1,-1,-1],"split_conditions":[1.16399825E-1,2.1956506E-1,-2.1097185E-1,1.3930175E-1,-2.1270241E-1,1.9703035E-1,2.0680901E-1,3.0819064E-1,-2.1411873E-1,2.3589878E-1,2.3494308E-1,1.7877927E-1,2.6243395E-1,-3.5135206E-2,1.3461699E-1,1.4031385E-2,-1.9562465E-1],"split_indices":[2887,2013,0,2187,0,702,2187,725,0,0,2187,2652,0,0,0,0,0],"split_type":[0,0,0,0,0,0,0,0,0,0,0,0,0,0,0,0,0],"sum_hessian":[1.2528433E2,1.2305271E2,2.2316232E0,1.2098897E2,2.0637438E0,1.1497964E2,6.0093336E0,1.1275775E2,2.2218852E0,2.2684753E0,3.740858E0,1.1137298E2,1.3847704E0,1.0851679E0,2.6556902E0,1.0839097E2,2.9820094E0],"tree_param":{"num_deleted":"0","num_feature":"3000","num_nodes":"17","size_leaf_vector":"1"}},{"base_weights":[7.3784348E-3,-7.4827154E-3,2.6541126E-1,-2.2119557E-2,2.654281E-1,6.02881E-3,-2.1828975E-1,-1.6303223E-2,6.277089E-1,-4.9740445E-2,4.3736884E-1,2.7665135E-1,5.6515623E-2,-2.0036444E-2,2.6431093E-1,1.5910931E-1,3.0729704E-2],"categories":[],"categories_nodes":[],"categories_segments":[],"categories_sizes":[],"default_left":[0,0,0,0,0,0,0,0,0,0,0,0,0,0,0,0,0],"id":40,"left_children":[1,3,-1,5,-1,7,-1,9,11,13,15,-1,-1,-1,-1,-1,-1],"loss_changes":[1.64227E0,1.6435841E0,0E0,2.4534507E0,0E0,1.6704454E0,0E0,1.78765E0,3.659855E-1,1.7934518E0,1.9775176E-1,0E0,0E0,0E0,0E0,0E0,0E0],"parents":[2147483647,0,0,1,1,3,3,5,5,7,7,8,8,9,9,10,10],"right_children":[2,4,-1,6,-1,8,-1,10,12,14,16,-1,-1,-1,-1,-1,-1],"split_conditions":[1.9735222E-1,1.83647E-1,2.6541126E-1,1.6430342E-1,2.654281E-1,9.672646E-2,-2.1828975E-1,2.0030591E-1,1.3987704E-1,2.3989895E-1,3.198955E-1,2.7665135E-1,5.6515623E-2,-2.0036444E-2,2.6431093E-1,1.5910931E-1,3.0729704E-2],"split_indices":[2770,1533,0,1232,0,1232,0,2633,1232,1323,2633,0,0,0,0,0,0],"split_type":[0,0,0,0,0,0,0,0,0,0,0,0,0,0,0,0,0],"sum_hessian":[1.2445186E2,1.2335382E2,1.0980375E0,1.2232238E2,1.0314343E0,1.1858266E2,3.7397249E0,1.15410645E2,3.172013E0,1.0831762E2,7.093027E0,1.2410878E0,1.9309253E0,1.0728095E2,1.0366665E0,5.094936E0,1.9980912E0],"tree_param":{"num_deleted":"0","num_feature":"3000","num_nodes":"17","size_leaf_vector":"1"}},{"base_weights":[1.32161975E-2,-1.9766279E-3,2.5659665E-1,-1.9855011E-2,2.1479629E-1,-3.465026E-2,2.5925925E-1,-6.299267E-2,5.210456E-1,-8.4429584E-2,2.031536E-1,3.013804E-1,2.2998881E-1,-3.5298362E-2,1.22818634E-1,1.7541665E-1,-1.08325E-1],"categories":[],"categories_nodes":[],"categories_segments":[],"categories_sizes":[],"default_left":[0,0,0,0,0,0,0,0,0,0,0,0,0,0,0,0,0],"id":41,"left_children":[1,3,-1,5,-1,7,-1,9,11,13,-1,15,-1,-1,-1,-1,-1],"loss_changes":[1.5874755E0,1.5898265E0,0E0,1.6091918E0,0E0,1.9182837E0,0E0,1.8786453E0,8.81722E-2,1.8936126E0,0E0,1.1067215E0,0E0,0E0,0E0,0E0,0E0],"parents":[2147483647,0,0,1,1,3,3,5,5,7,7,8,8,9,9,11,11],"right_children":[2,4,-1,6,-1,8,-1,10,12,14,-1,16,-1,-1,-1,-1,-1],"split_conditions":[1.9528028E-1,1.7812258E-1,2.5659665E-1,2.5007018E-1,2.1479629E-1,1.7119673E-1,2.5925925E-1,1.738168E-1,7.5432464E-2,1.7446941E-1,2.031536E-1,2.6828024E-1,2.2998881E-1,-3.5298362E-2,1.22818634E-1,1.7541665E-1,-1.08325E-1],"split_indices":[639,2808,0,1323,0,1846,0,1984,581,2309,0,1846,0,0,0,0,0],"split_type":[0,0,0,0,0,0,0,0,0,0,0,0,0,0,0,0,0],"sum_hessian":[1.2294784E2,1.2174896E2,1.1988767E0,1.1973961E2,2.00935E0,1.1871366E2,1.0259528E0,1.13796295E2,4.917362E0,1.1145428E2,2.3420172E0,3.7712886E0,1.1460735E0,1.0514065E2,6.313634E0,2.7236927E0,1.047596E0],"tree_param":{"num_deleted":"0","num_feature":"3000","num_nodes":"17","size_leaf_vector":"1"}},{"base_weights":[2.0055749E-2,5.3108647E-3,2.679259E-1,-1.1924278E-2,2.2369707E-1,-2.678966E-2,2.586148E-1,-5.2617528E-3,-2.1713106E-1,-2.0812245E-2,2.4455999E-1,-1.3347926E-2,1.6422072E-1],"categories":[],"categories_nodes":[],"categories_segments":[],"categories_sizes":[],"default_left":[0,0,0,0,0,0,0,0,0,0,0,0,0],"id":42,"left_children":[1,3,-1,5,-1,7,-1,9,-1,11,-1,-1,-1],"loss_changes":[1.5621307E0,1.5490798E0,0E0,1.5683944E0,0E0,1.765579E0,0E0,1.489276E0,0E0,1.5613608E0,0E0,0E0,0E0],"parents":[2147483647,0,0,1,1,3,3,5,5,7,7,9,9],"right_children":[2,4,-1,6,-1,8,-1,10,-1,12,-1,-1,-1],"split_conditions":[2.025846E-1,1.5716378E-1,2.679259E-1,2.5540438E-1,2.2369707E-1,1.586192E-1,2.586148E-1,2.6039836E-1,-2.1713106E-1,1.7564596E-1,2.4455999E-1,-1.3347926E-2,1.6422072E-1],"split_indices":[2088,677,0,1323,0,2621,0,765,0,2923,0,0,0],"split_type":[0,0,0,0,0,0,0,0,0,0,0,0,0],"sum_hessian":[1.2072036E2,1.1970471E2,1.0156468E0,1.1794291E2,1.7617997E0,1.16923515E2,1.0194002E0,1.1439762E2,2.525894E0,1.13226234E2,1.1713823E0,1.0958105E2,3.645189E0],"tree_param":{"num_deleted":"0","num_feature":"3000","num_nodes":"13","size_leaf_vector":"1"}},{"base_weights":[2.2103108E-2,3.9488293E-2,-2.0888591E-1,2.2373028E-2,2.7323794E-1,4.2977747E-2,-2.2305106E-1,2.5993492E-2,2.8281665E-1,4.9793934E-3,7.387803E-1,1.0260173E-2,-1.7062446E-1,4.6872613E-1,-1.5643436E-1],"categories":[],"categories_nodes":[],"categories_segments":[],"categories_sizes":[],"default_left":[0,0,0,0,0,0,0,0,0,0,0,0,0,0,0],"id":43,"left_children":[1,3,-1,5,-1,7,-1,9,-1,11,13,-1,-1,-1,-1],"loss_changes":[1.5259061E0,1.7406046E0,0E0,1.8757206E0,0E0,1.728609E0,0E0,1.6982512E0,0E0,1.8866901E0,4.1851387E0,0E0,0E0,0E0,0E0],"parents":[2147483647,0,0,1,1,3,3,5,5,7,7,9,9,10,10],"right_children":[2,4,-1,6,-1,8,-1,10,-1,12,14,-1,-1,-1,-1],"split_conditions":[7.735174E-2,1.2837161E-1,-2.0888591E-1,9.1507E-2,2.7323794E-1,2.4296801E-1,-2.2305106E-1,1.9248489E-1,2.8281665E-1,1.6681118E-1,2.6562905E-1,1.0260173E-2,-1.7062446E-1,4.6872613E-1,-1.5643436E-1],"split_indices":[1270,1733,0,366,0,1929,0,2878,0,2678,2878,0,0,0,0],"split_type":[0,0,0,0,0,0,0,0,0,0,0,0,0,0,0],"sum_hessian":[1.1897525E2,1.17086754E2,1.8884937E0,1.1583701E2,1.2497388E0,1.13721405E2,2.1156132E0,1.1262431E2,1.0970919E0,1.103772E2,2.2471108E0,1.05922714E2,4.454484E0,1.2139349E0,1.0331761E0],"tree_param":{"num_deleted":"0","num_feature":"3000","num_nodes":"15","size_leaf_vector":"1"}},{"base_weights":[1.6132269E-2,3.2903563E-2,-2.1287277E-1,5.0197016E-2,-2.0720193E-1,6.726497E-2,-2.1524955E-1,8.590237E-2,-1.9884439E-1,1.028003E-1,-2.2304489E-1,2.4581635E-2,2.68024E-1],"categories":[],"categories_nodes":[],"categories_segments":[],"categories_sizes":[],"default_left":[0,0,0,0,0,0,0,0,0,0,0,0,0],"id":44,"left_children":[1,3,-1,5,-1,7,-1,9,-1,11,-1,-1,-1],"loss_changes":[1.4769135E0,1.507291E0,0E0,1.566522E0,0E0,1.6117222E0,0E0,1.6503918E0,0E0,1.7566112E0,0E0,0E0,0E0],"parents":[2147483647,0,0,1,1,3,3,5,5,7,7,9,9],"right_children":[2,4,-1,6,-1,8,-1,10,-1,12,-1,-1,-1],"split_conditions":[1.968745E-1,9.159391E-2,-2.1287277E-1,9.791307E-2,-2.0720193E-1,1.8027523E-1,-2.1524955E-1,1.13253936E-1,-1.9884439E-1,1.9143082E-1,-2.2304489E-1,2.4581635E-2,2.68024E-1],"split_indices":[1328,1298,0,2398,0,1511,0,2382,0,2411,0,0,0],"split_type":[0,0,0,0,0,0,0,0,0,0,0,0,0],"sum_hessian":[1.1842799E2,1.1668601E2,1.7419827E0,1.1487122E2,1.814791E0,1.132654E2,1.6058164E0,1.1130633E2,1.959079E0,1.09942406E2,1.3639188E0,1.0819125E2,1.7511511E0],"tree_param":{"num_deleted":"0","num_feature":"3000","num_nodes":"13","size_leaf_vector":"1"}},{"base_weights":[3.513143E-3,-1.1608877E-2,2.3675747E-1,7.0898873E-3,-2.1126048E-1,2.4644407E-2,-2.1259364E-1,4.0620457E-2,-2.2197856E-1,5.7041205E-2,-2.1575867E-1,2.2681575E-2,-1.8507513E-1],"categories":[],"categories_nodes":[],"categories_segments":[],"categories_sizes":[],"default_left":[0,0,0,0,0,0,0,0,0,0,0,0,0],"id":45,"left_children":[1,3,-1,5,-1,7,-1,9,-1,11,-1,-1,-1],"loss_changes":[1.4286649E0,1.5358304E0,0E0,1.4760423E0,0E0,1.4259157E0,0E0,1.4494562E0,0E0,1.4407E0,0E0,0E0,0E0],"parents":[2147483647,0,0,1,1,3,3,5,5,7,7,9,9],"right_children":[2,4,-1,6,-1,8,-1,10,-1,12,-1,-1,-1],"split_conditions":[2.390621E-1,1.7980488E-1,2.3675747E-1,1.1102669E-1,-2.1126048E-1,1.6011557E-1,-2.1259364E-1,8.883614E-2,-2.2197856E-1,1.7322148E-1,-2.1575867E-1,2.2681575E-2,-1.8507513E-1],"split_indices":[2459,1912,0,1800,0,2565,0,1532,0,1352,0,0,0],"split_type":[0,0,0,0,0,0,0,0,0,0,0,0,0],"sum_hessian":[1.1847632E2,1.1720567E2,1.2706435E0,1.1508826E2,2.117414E0,1.13275566E2,1.8126913E0,1.1188457E2,1.3910002E0,1.1042309E2,1.461479E0,1.0832706E2,2.096028E0],"tree_param":{"num_deleted":"0","num_feature":"3000","num_nodes":"13","size_leaf_vector":"1"}},{"base_weights":[-5.4798694E-3,-2.0195123E-2,2.3885332E-1,-3.492804E-2,2.3729716E-1,-4.931283E-2,2.3872627E-1,-6.529615E-2,2.161643E-1,-7.987491E-2,2.3189695E-1,-2.8475361E-2,2.2777833E-1],"categories":[],"categories_nodes":[],"categories_segments":[],"categories_sizes":[],"default_left":[0,0,0,0,0,0,0,0,0,0,0,0,0],"id":46,"left_children":[1,3,-1,5,-1,7,-1,9,-1,11,-1,-1,-1],"loss_changes":[1.4244381E0,1.4403737E0,0E0,1.4380046E0,0E0,1.474523E0,0E0,1.4618701E0,0E0,1.5049603E0,0E0,0E0,0E0],"parents":[2147483647,0,0,1,1,3,3,5,5,7,7,9,9],"right_children":[2,4,-1,6,-1,8,-1,10,-1,12,-1,-1,-1],"split_conditions":[2.6362133E-1,1.3700567E-1,2.3885332E-1,1.6489393E-1,2.3729716E-1,1.9653183E-1,2.3872627E-1,2.949967E-1,2.161643E-1,2.542731E-1,2.3189695E-1,-2.8475361E-2,2.2777833E-1],"split_indices":[726,2703,0,2018,0,394,0,1323,0,2320,0,0,0],"split_type":[0,0,0,0,0,0,0,0,0,0,0,0,0],"sum_hessian":[1.1838693E2,1.1721023E2,1.1767066E0,1.1605928E2,1.15095E0,1.1500833E2,1.0509452E0,1.1356574E2,1.44259E0,1.1251372E2,1.0520272E0,1.114035E2,1.1102127E0],"tree_param":{"num_deleted":"0","num_feature":"3000","num_nodes":"13","size_leaf_vector":"1"}},{"base_weights":[7.7309664E-3,-6.0360506E-3,2.413442E-1,-2.1403281E-2,2.1094131E-1,-3.6805417E-2,2.1269496E-1,-5.2677445E-2,2.0957984E-1,-7.2929196E-2,5.531653E-1,-2.7571829E-2,2.2419918E-1,2.4813117E-1,-2.8138794E-2],"categories":[],"categories_nodes":[],"categories_segments":[],"categories_sizes":[],"default_left":[0,0,0,0,0,0,0,0,0,0,0,0,0,0,0],"id":47,"left_children":[1,3,-1,5,-1,7,-1,9,-1,11,13,-1,-1,-1,-1],"loss_changes":[1.293657E0,1.2845955E0,0E0,1.3197073E0,0E0,1.3624147E0,0E0,1.4157286E0,0E0,1.7709286E0,7.4084604E-1,0E0,0E0,0E0,0E0],"parents":[2147483647,0,0,1,1,3,3,5,5,7,7,9,9,10,10],"right_children":[2,4,-1,6,-1,8,-1,10,-1,12,14,-1,-1,-1,-1],"split_conditions":[2.2310506E-1,1.9822153E-1,2.413442E-1,3.0819064E-1,2.1094131E-1,2.6745215E-1,2.1269496E-1,1.8064965E-1,2.0957984E-1,2.550969E-1,2.555371E-1,-2.7571829E-2,2.2419918E-1,2.4813117E-1,-2.8138794E-2],"split_indices":[1413,2089,0,725,0,993,0,1793,0,1194,1793,0,0,0,0],"split_type":[0,0,0,0,0,0,0,0,0,0,0,0,0,0,0],"sum_hessian":[1.1649629E2,1.1549311E2,1.0031784E0,1.139928E2,1.5003136E0,1.12568596E2,1.4241992E0,1.1109915E2,1.469451E0,1.0835669E2,2.742459E0,1.0677439E2,1.5822953E0,1.7310486E0,1.0114104E0],"tree_param":{"num_deleted":"0","num_feature":"3000","num_nodes":"15","size_leaf_vector":"1"}},{"base_weights":[1.6680473E-2,3.3248626E-2,-1.9911882E-1,4.8168696E-2,-2.2218469E-1,6.4955615E-2,-1.9776396E-1,3.6799934E-2,5.4214275E-1,5.319658E-2,-1.999717E-1,1.8755247E-1,1.8847454E-2,2.0969162E-2,-1.9270685E-1],"categories":[],"categories_nodes":[],"categories_segments":[],"categories_sizes":[],"default_left":[0,0,0,0,0,0,0,0,0,0,0,0,0,0,0],"id":48,"left_children":[1,3,-1,5,-1,7,-1,9,11,13,-1,-1,-1,-1,-1],"loss_changes":[1.3264533E0,1.3508824E0,0E0,1.3810279E0,0E0,1.4712778E0,0E0,1.2565708E0,2.0394099E-1,1.2575611E0,0E0,0E0,0E0,0E0,0E0],"parents":[2147483647,0,0,1,1,3,3,5,5,7,7,8,8,9,9],"right_children":[2,4,-1,6,-1,8,-1,10,12,14,-1,-1,-1,-1,-1],"split_conditions":[1.16399825E-1,1.3043572E-1,-1.9911882E-1,1.1032184E-1,-2.2218469E-1,1.3930175E-1,-1.9776396E-1,8.521296E-2,1.7949574E-1,1.0239979E-1,-1.999717E-1,1.8755247E-1,1.8847454E-2,2.0969162E-2,-1.9270685E-1],"split_indices":[2887,1393,0,2884,0,2187,0,2273,2309,1348,0,0,0,0,0],"split_type":[0,0,0,0,0,0,0,0,0,0,0,0,0,0,0],"sum_hessian":[1.1470742E2,1.1290919E2,1.798233E0,1.116935E2,1.2156904E0,1.09991455E2,1.7020383E0,1.0488028E2,5.111178E0,1.0339437E2,1.4859059E0,4.0971313E0,1.0140467E0,1.0184844E2,1.5459316E0],"tree_param":{"num_deleted":"0","num_feature":"3000","num_nodes":"15","size_leaf_vector":"1"}},{"base_weights":[3.860615E-3,1.9805238E-2,-2.0000951E-1,-3.2905728E-2,2.364536E-1,-5.6704555E-2,2.0648341E-1,1.3443905E-1,3.156407E-1,-8.297514E-2,6.8129987E-1,3.115369E-1,-1.11911215E-1,-4.810786E-2,-2.4204475E-1,4.3314865E-1,-1.24706514E-1,3.8100576E-1,-9.749391E-2,-2.1949079E-2,2.2153059E-1,1.2979521E-1,-4.024835E-2],"categories":[],"categories_nodes":[],"categories_segments":[],"categories_sizes":[],"default_left":[0,0,0,0,0,0,0,0,0,0,0,0,0,0,0,0,0,0,0,0,0,0,0],"id":49,"left_children":[1,3,-1,5,7,9,-1,11,-1,13,15,17,-1,19,-1,-1,-1,21,-1,-1,-1,-1,-1],"loss_changes":[1.2483943E0,1.3075155E0,0E0,1.6252655E0,1.7220374E0,1.809026E0,0E0,2.0081863E0,0E0,2.186603E0,3.289999E0,8.3796394E-1,0E0,1.7328452E0,0E0,0E0,0E0,4.5770717E-1,0E0,0E0,0E0,0E0,0E0],"parents":[2147483647,0,0,1,1,3,3,4,4,5,5,7,7,9,9,10,10,11,11,13,13,17,17],"right_children":[2,4,-1,6,8,10,-1,12,-1,14,16,18,-1,20,-1,-1,-1,22,-1,-1,-1,-1,-1],"split_conditions":[2.1956506E-1,1.2207586E-1,-2.0000951E-1,3.068789E-1,7.635122E-2,1.9153184E-1,2.0648341E-1,2.9654062E-1,3.156407E-1,1.5011306E-1,2.5096408E-1,7.373013E-2,-1.11911215E-1,1.9143082E-1,-2.4204475E-1,4.3314865E-1,-1.24706514E-1,1.5729515E-1,-9.749391E-2,-2.1949079E-2,2.2153059E-1,1.2979521E-1,-4.024835E-2],"split_indices":[2013,581,0,2633,2678,2878,0,581,0,2678,2878,1572,0,2411,0,0,0,2633,0,0,0,0,0],"split_type":[0,0,0,0,0,0,0,0,0,0,0,0,0,0,0,0,0,0,0,0,0,0,0],"sum_hessian":[1.14526764E2,1.1281471E2,1.7120558E0,9.142013E1,2.139458E1,8.939161E1,2.0285206E0,2.005161E1,1.3429682E0,8.7175995E1,2.2156172E0,1.5150525E1,4.9010873E0,8.418717E1,2.9888196E0,1.120541E0,1.0950761E0,1.4021637E1,1.1288881E0,8.246712E1,1.720051E0,1.2889638E1,1.1319984E0],"tree_param":{"num_deleted":"0","num_feature":"3000","num_nodes":"23","size_leaf_vector":"1"}}]},"name":"gbtree"},"learner_model_param":{"base_score":"1.2454655E-1","boost_from_average":"1","num_class":"0","num_feature":"3000","num_target":"1"},"objective":{"name":"binary:logistic","reg_loss_param":{"scale_pos_weight":"1"}}},"version":[3,0,0]}